{"learner":{"attributes":{"scikit_learn":"{\"_estimator_type\": \"regressor\"}"},"feature_names":["area","log_area","bedrooms","bathrooms","bed_bath_ratio","sqm_per_room","location_encoded","loc_type_encoded","compound_encoded","location_count","property_type_enc","log_area_x_location","is_ready"],"feature_types":["int","float","int","int","float","float","float","float","float","int","int","float","int"],"gradient_booster":{"model":{"cats":{"enc":[],"feature_segments":[],"sorted_idx":[]},"gbtree_model_param":{"num_parallel_tree":"1","num_trees":"1150"},"iteration_indptr":[0,1,2,3,4,5,6,7,8,9,10,11,12,13,14,15,16,17,18,19,20,21,22,23,24,25,26,27,28,29,30,31,32,33,34,35,36,37,38,39,40,41,42,43,44,45,46,47,48,49,50,51,52,53,54,55,56,57,58,59,60,61,62,63,64,65,66,67,68,69,70,71,72,73,74,75,76,77,78,79,80,81,82,83,84,85,86,87,88,89,90,91,92,93,94,95,96,97,98,99,100,101,102,103,104,105,106,107,108,109,110,111,112,113,114,115,116,117,118,119,120,121,122,123,124,125,126,127,128,129,130,131,132,133,134,135,136,137,138,139,140,141,142,143,144,145,146,147,148,149,150,151,152,153,154,155,156,157,158,159,160,161,162,163,164,165,166,167,168,169,170,171,172,173,174,175,176,177,178,179,180,181,182,183,184,185,186,187,188,189,190,191,192,193,194,195,196,197,198,199,200,201,202,203,204,205,206,207,208,209,210,211,212,213,214,215,216,217,218,219,220,221,222,223,224,225,226,227,228,229,230,231,232,233,234,235,236,237,238,239,240,241,242,243,244,245,246,247,248,249,250,251,252,253,254,255,256,257,258,259,260,261,262,263,264,265,266,267,268,269,270,271,272,273,274,275,276,277,278,279,280,281,282,283,284,285,286,287,288,289,290,291,292,293,294,295,296,297,298,299,300,301,302,303,304,305,306,307,308,309,310,311,312,313,314,315,316,317,318,319,320,321,322,323,324,325,326,327,328,329,330,331,332,333,334,335,336,337,338,339,340,341,342,343,344,345,346,347,348,349,350,351,352,353,354,355,356,357,358,359,360,361,362,363,364,365,366,367,368,369,370,371,372,373,374,375,376,377,378,379,380,381,382,383,384,385,386,387,388,389,390,391,392,393,394,395,396,397,398,399,400,401,402,403,404,405,406,407,408,409,410,411,412,413,414,415,416,417,418,419,420,421,422,423,424,425,426,427,428,429,430,431,432,433,434,435,436,437,438,439,440,441,442,443,444,445,446,447,448,449,450,451,452,453,454,455,456,457,458,459,460,461,462,463,464,465,466,467,468,469,470,471,472,473,474,475,476,477,478,479,480,481,482,483,484,485,486,487,488,489,490,491,492,493,494,495,496,497,498,499,500,501,502,503,504,505,506,507,508,509,510,511,512,513,514,515,516,517,518,519,520,521,522,523,524,525,526,527,528,529,530,531,532,533,534,535,536,537,538,539,540,541,542,543,544,545,546,547,548,549,550,551,552,553,554,555,556,557,558,559,560,561,562,563,564,565,566,567,568,569,570,571,572,573,574,575,576,577,578,579,580,581,582,583,584,585,586,587,588,589,590,591,592,593,594,595,596,597,598,599,600,601,602,603,604,605,606,607,608,609,610,611,612,613,614,615,616,617,618,619,620,621,622,623,624,625,626,627,628,629,630,631,632,633,634,635,636,637,638,639,640,641,642,643,644,645,646,647,648,649,650,651,652,653,654,655,656,657,658,659,660,661,662,663,664,665,666,667,668,669,670,671,672,673,674,675,676,677,678,679,680,681,682,683,684,685,686,687,688,689,690,691,692,693,694,695,696,697,698,699,700,701,702,703,704,705,706,707,708,709,710,711,712,713,714,715,716,717,718,719,720,721,722,723,724,725,726,727,728,729,730,731,732,733,734,735,736,737,738,739,740,741,742,743,744,745,746,747,748,749,750,751,752,753,754,755,756,757,758,759,760,761,762,763,764,765,766,767,768,769,770,771,772,773,774,775,776,777,778,779,780,781,782,783,784,785,786,787,788,789,790,791,792,793,794,795,796,797,798,799,800,801,802,803,804,805,806,807,808,809,810,811,812,813,814,815,816,817,818,819,820,821,822,823,824,825,826,827,828,829,830,831,832,833,834,835,836,837,838,839,840,841,842,843,844,845,846,847,848,849,850,851,852,853,854,855,856,857,858,859,860,861,862,863,864,865,866,867,868,869,870,871,872,873,874,875,876,877,878,879,880,881,882,883,884,885,886,887,888,889,890,891,892,893,894,895,896,897,898,899,900,901,902,903,904,905,906,907,908,909,910,911,912,913,914,915,916,917,918,919,920,921,922,923,924,925,926,927,928,929,930,931,932,933,934,935,936,937,938,939,940,941,942,943,944,945,946,947,948,949,950,951,952,953,954,955,956,957,958,959,960,961,962,963,964,965,966,967,968,969,970,971,972,973,974,975,976,977,978,979,980,981,982,983,984,985,986,987,988,989,990,991,992,993,994,995,996,997,998,999,1000,1001,1002,1003,1004,1005,1006,1007,1008,1009,1010,1011,1012,1013,1014,1015,1016,1017,1018,1019,1020,1021,1022,1023,1024,1025,1026,1027,1028,1029,1030,1031,1032,1033,1034,1035,1036,1037,1038,1039,1040,1041,1042,1043,1044,1045,1046,1047,1048,1049,1050,1051,1052,1053,1054,1055,1056,1057,1058,1059,1060,1061,1062,1063,1064,1065,1066,1067,1068,1069,1070,1071,1072,1073,1074,1075,1076,1077,1078,1079,1080,1081,1082,1083,1084,1085,1086,1087,1088,1089,1090,1091,1092,1093,1094,1095,1096,1097,1098,1099,1100,1101,1102,1103,1104,1105,1106,1107,1108,1109,1110,1111,1112,1113,1114,1115,1116,1117,1118,1119,1120,1121,1122,1123,1124,1125,1126,1127,1128,1129,1130,1131,1132,1133,1134,1135,1136,1137,1138,1139,1140,1141,1142,1143,1144,1145,1146,1147,1148,1149,1150],"tree_info":[0,0,0,0,0,0,0,0,0,0,0,0,0,0,0,0,0,0,0,0,0,0,0,0,0,0,0,0,0,0,0,0,0,0,0,0,0,0,0,0,0,0,0,0,0,0,0,0,0,0,0,0,0,0,0,0,0,0,0,0,0,0,0,0,0,0,0,0,0,0,0,0,0,0,0,0,0,0,0,0,0,0,0,0,0,0,0,0,0,0,0,0,0,0,0,0,0,0,0,0,0,0,0,0,0,0,0,0,0,0,0,0,0,0,0,0,0,0,0,0,0,0,0,0,0,0,0,0,0,0,0,0,0,0,0,0,0,0,0,0,0,0,0,0,0,0,0,0,0,0,0,0,0,0,0,0,0,0,0,0,0,0,0,0,0,0,0,0,0,0,0,0,0,0,0,0,0,0,0,0,0,0,0,0,0,0,0,0,0,0,0,0,0,0,0,0,0,0,0,0,0,0,0,0,0,0,0,0,0,0,0,0,0,0,0,0,0,0,0,0,0,0,0,0,0,0,0,0,0,0,0,0,0,0,0,0,0,0,0,0,0,0,0,0,0,0,0,0,0,0,0,0,0,0,0,0,0,0,0,0,0,0,0,0,0,0,0,0,0,0,0,0,0,0,0,0,0,0,0,0,0,0,0,0,0,0,0,0,0,0,0,0,0,0,0,0,0,0,0,0,0,0,0,0,0,0,0,0,0,0,0,0,0,0,0,0,0,0,0,0,0,0,0,0,0,0,0,0,0,0,0,0,0,0,0,0,0,0,0,0,0,0,0,0,0,0,0,0,0,0,0,0,0,0,0,0,0,0,0,0,0,0,0,0,0,0,0,0,0,0,0,0,0,0,0,0,0,0,0,0,0,0,0,0,0,0,0,0,0,0,0,0,0,0,0,0,0,0,0,0,0,0,0,0,0,0,0,0,0,0,0,0,0,0,0,0,0,0,0,0,0,0,0,0,0,0,0,0,0,0,0,0,0,0,0,0,0,0,0,0,0,0,0,0,0,0,0,0,0,0,0,0,0,0,0,0,0,0,0,0,0,0,0,0,0,0,0,0,0,0,0,0,0,0,0,0,0,0,0,0,0,0,0,0,0,0,0,0,0,0,0,0,0,0,0,0,0,0,0,0,0,0,0,0,0,0,0,0,0,0,0,0,0,0,0,0,0,0,0,0,0,0,0,0,0,0,0,0,0,0,0,0,0,0,0,0,0,0,0,0,0,0,0,0,0,0,0,0,0,0,0,0,0,0,0,0,0,0,0,0,0,0,0,0,0,0,0,0,0,0,0,0,0,0,0,0,0,0,0,0,0,0,0,0,0,0,0,0,0,0,0,0,0,0,0,0,0,0,0,0,0,0,0,0,0,0,0,0,0,0,0,0,0,0,0,0,0,0,0,0,0,0,0,0,0,0,0,0,0,0,0,0,0,0,0,0,0,0,0,0,0,0,0,0,0,0,0,0,0,0,0,0,0,0,0,0,0,0,0,0,0,0,0,0,0,0,0,0,0,0,0,0,0,0,0,0,0,0,0,0,0,0,0,0,0,0,0,0,0,0,0,0,0,0,0,0,0,0,0,0,0,0,0,0,0,0,0,0,0,0,0,0,0,0,0,0,0,0,0,0,0,0,0,0,0,0,0,0,0,0,0,0,0,0,0,0,0,0,0,0,0,0,0,0,0,0,0,0,0,0,0,0,0,0,0,0,0,0,0,0,0,0,0,0,0,0,0,0,0,0,0,0,0,0,0,0,0,0,0,0,0,0,0,0,0,0,0,0,0,0,0,0,0,0,0,0,0,0,0,0,0,0,0,0,0,0,0,0,0,0,0,0,0,0,0,0,0,0,0,0,0,0,0,0,0,0,0,0,0,0,0,0,0,0,0,0,0,0,0,0,0,0,0,0,0,0,0,0,0,0,0,0,0,0,0,0,0,0,0,0,0,0,0,0,0,0,0,0,0,0,0,0,0,0,0,0,0,0,0,0,0,0,0,0,0,0,0,0,0,0,0,0,0,0,0,0,0,0,0,0,0,0,0,0,0,0,0,0,0,0,0,0,0,0,0,0,0,0,0,0,0,0,0,0,0,0,0,0,0,0,0,0,0,0,0,0,0,0,0,0,0,0,0,0,0,0,0,0,0,0,0,0,0,0,0,0,0,0,0,0,0,0,0,0,0,0,0,0,0,0,0,0,0,0,0,0,0,0,0,0,0,0,0,0,0,0,0,0,0,0,0,0,0,0,0,0,0,0,0,0,0,0,0,0,0,0,0,0,0,0,0,0,0,0,0,0,0,0,0,0,0,0,0,0,0,0,0,0,0,0,0,0,0,0,0,0,0,0,0,0,0,0,0,0,0,0,0,0,0,0,0,0,0,0,0,0,0,0,0,0,0,0,0,0,0,0,0,0,0,0,0,0,0,0,0,0,0,0,0,0,0,0,0,0,0,0,0,0,0,0,0,0,0,0,0,0,0,0,0,0,0,0,0,0,0,0,0,0,0,0,0,0,0,0,0,0,0,0,0,0,0,0,0,0,0,0,0,0,0,0,0,0,0,0,0,0,0,0,0,0,0,0,0,0,0,0,0,0,0,0],"trees":[{"base_weights":[-8.828027E-3,-2.5694305E-1,6.711369E-1,-4.5455948E-1,1.2963776E-2,4.499672E-1,1.0118309E0,-5.809996E-1,-1.898805E-1,-1.827247E-1,1.9108516E-1,1.8232878E-1,5.4734164E-1,8.251348E-1,1.2569674E0,-8.2049245E-1,-4.826049E-1,-3.4497523E-1,-6.509085E-2,-2.6375395E-1,1.46512E-1,1.7003578E-1,7.708137E-1,1.1689187E-1,3.7891188E-1,5.225571E-1,9.520953E-1,1.6271552E-1,8.7457544E-1,1.0940018E0,1.3662677E0,-6.1745275E-2,-7.910491E-1,-5.2220815E-1,-1.4207876E-1,-4.9184045E-1,-2.685651E-1,-1.456188E-1,1.16441675E-1,-4.111689E-1,-1.7626485E-1,3.6619574E-2,3.9968133E-1,1.2741211E-1,3.919722E-1,2.9259792E-2,4.6298947E-2,-1.05718546E-1,1.5193622E-1,1.054228E-1,4.6477234E-1,4.9443203E-1,8.549117E-1,3.200021E-2,1.0452726E0,1.2188736E-4,1.7040113E-2,5.687363E-1,9.526213E-1,1.036671E0,1.2990543E0,1.3232201E0,8.865328E-2,-4.8074175E-2,-3.7295975E-2,-4.0544275E-2,-2.5728498E-2,-9.172215E-3,1.4012898E-2,-2.9709645E-2,-1.6374463E-2,-1.7360909E-2,-3.3000773E-3,1.7929964E-3,-1.1129963E-2,3.5443178E-3,3.484812E-2,-2.3843294E-2,3.7092976E-3,-2.2162236E-2,-7.847933E-3,-1.2156496E-2,4.789601E-3,1.4865132E-3,2.6129698E-2,-2.7207118E-3,9.503414E-3,3.64702E-2,1.6378721E-2,5.439467E-3,-1.8111847E-2,1.5915545E-2,4.993015E-3,-4.4256618E-4,1.1621634E-2,3.1913098E-2,1.9145556E-2,2.4864543E-2,3.3924613E-2,2.844627E-2,4.9709454E-2,5.276613E-2,6.600548E-2,-4.3500255E-5,3.4099746E-2,4.9211208E-2,6.9579534E-2,4.615821E-2,5.8767658E-2,6.3572146E-2,7.9953104E-2,6.0570095E-2,7.4619494E-2],"categories":[],"categories_nodes":[],"categories_segments":[],"categories_sizes":[],"default_left":[0,0,0,0,0,0,0,0,0,0,0,0,0,0,0,0,0,0,0,0,0,0,0,0,0,0,0,0,0,0,0,0,0,0,0,0,0,0,0,0,0,0,0,0,0,0,0,0,0,0,0,0,0,0,0,0,0,0,0,0,0,0,0,0,0,0,0,0,0,0,0,0,0,0,0,0,0,0,0,0,0,0,0,0,0,0,0,0,0,0,0,0,0,0,0,0,0,0,0,0,0,0,0,0,0,0,0,0,0,0,0,0,0],"id":0,"left_children":[1,3,5,7,9,11,13,15,17,19,21,23,25,27,29,31,33,35,37,39,41,43,45,47,49,51,53,55,57,59,61,-1,63,65,67,69,71,73,75,77,79,81,83,85,87,-1,-1,89,91,93,95,97,99,-1,101,-1,-1,103,105,107,109,111,-1,-1,-1,-1,-1,-1,-1,-1,-1,-1,-1,-1,-1,-1,-1,-1,-1,-1,-1,-1,-1,-1,-1,-1,-1,-1,-1,-1,-1,-1,-1,-1,-1,-1,-1,-1,-1,-1,-1,-1,-1,-1,-1,-1,-1,-1,-1,-1,-1,-1,-1],"loss_changes":[1.6169508E3,3.745957E2,1.9282178E2,1.3557953E2,1.03470375E2,4.0411957E1,4.5703735E1,6.442731E1,2.5333282E1,3.7748714E1,1.88456E1,5.2836084E0,1.1172089E1,1.8641144E1,7.171875E0,7.2806396E0,2.6152374E1,6.452759E0,1.063768E1,1.4568169E1,7.7232943E0,1.4130405E1,8.580971E-1,2.4439216E0,2.3579865E0,9.814423E0,1.8728943E0,9.623126E-1,1.2457001E1,1.5372162E0,2.3452454E0,0E0,7.0517883E0,1.7601074E1,2.317607E0,2.1257133E0,4.2668858E0,5.5352983E0,5.9186344E0,6.4858017E0,5.0493546E0,2.6744168E0,2.6349096E0,1.1025732E1,5.899029E0,0E0,0E0,2.0454264E0,2.2549639E0,3.3713776E-1,9.5355797E-1,4.203949E0,1.6113358E0,0E0,1.13788605E-1,0E0,0E0,4.089611E0,5.053314E0,9.7146606E-1,1.5847397E-1,2.2227173E0,0E0,0E0,0E0,0E0,0E0,0E0,0E0,0E0,0E0,0E0,0E0,0E0,0E0,0E0,0E0,0E0,0E0,0E0,0E0,0E0,0E0,0E0,0E0,0E0,0E0,0E0,0E0,0E0,0E0,0E0,0E0,0E0,0E0,0E0,0E0,0E0,0E0,0E0,0E0,0E0,0E0,0E0,0E0,0E0,0E0,0E0,0E0,0E0,0E0,0E0,0E0],"parents":[2147483647,0,0,1,1,2,2,3,3,4,4,5,5,6,6,7,7,8,8,9,9,10,10,11,11,12,12,13,13,14,14,15,15,16,16,17,17,18,18,19,19,20,20,21,21,22,22,23,23,24,24,25,25,26,26,27,27,28,28,29,29,30,30,32,32,33,33,34,34,35,35,36,36,37,37,38,38,39,39,40,40,41,41,42,42,43,43,44,44,47,47,48,48,49,49,50,50,51,51,52,52,54,54,57,57,58,58,59,59,60,60,61,61],"right_children":[2,4,6,8,10,12,14,16,18,20,22,24,26,28,30,32,34,36,38,40,42,44,46,48,50,52,54,56,58,60,62,-1,64,66,68,70,72,74,76,78,80,82,84,86,88,-1,-1,90,92,94,96,98,100,-1,102,-1,-1,104,106,108,110,112,-1,-1,-1,-1,-1,-1,-1,-1,-1,-1,-1,-1,-1,-1,-1,-1,-1,-1,-1,-1,-1,-1,-1,-1,-1,-1,-1,-1,-1,-1,-1,-1,-1,-1,-1,-1,-1,-1,-1,-1,-1,-1,-1,-1,-1,-1,-1,-1,-1,-1,-1],"split_conditions":[1.6555334E1,8.19364E1,1.6925396E1,1.6320093E1,1.6222656E1,8.542238E1,9.506479E1,7.469715E1,7.6813866E1,8.719262E1,1.7068558E1,1.6412477E1,1.6954157E1,1.5978864E1,1.7305227E1,1.6079885E1,1.6468157E1,7.171049E1,1.6477983E1,1.591845E1,9.017656E1,9.0635994E1,2.4333334E1,9.6E1,7.931942E1,9.612238E1,1.6622139E1,2.13E2,8.7713394E1,1.6609308E1,1.6715971E1,-6.1745275E-2,7.1186584E1,1.6021807E1,1.680538E1,1.6545563E1,1.6580706E1,3.49E2,1.7130419E1,1.6383078E1,1.6140823E1,1.61502E1,1.5904926E1,1.6319662E1,3E0,2.9259792E-2,4.6298947E-2,1.6990818E1,4.38E2,1.6633528E1,1.4E2,1.6577463E1,1.6663513E1,3.200021E-2,1.6881826E1,1.2188736E-4,1.7040113E-2,8.219548E1,1.758909E1,3.53E2,4.1E2,1.7363455E1,8.865328E-2,-4.8074175E-2,-3.7295975E-2,-4.0544275E-2,-2.5728498E-2,-9.172215E-3,1.4012898E-2,-2.9709645E-2,-1.6374463E-2,-1.7360909E-2,-3.3000773E-3,1.7929964E-3,-1.1129963E-2,3.5443178E-3,3.484812E-2,-2.3843294E-2,3.7092976E-3,-2.2162236E-2,-7.847933E-3,-1.2156496E-2,4.789601E-3,1.4865132E-3,2.6129698E-2,-2.7207118E-3,9.503414E-3,3.64702E-2,1.6378721E-2,5.439467E-3,-1.8111847E-2,1.5915545E-2,4.993015E-3,-4.4256618E-4,1.1621634E-2,3.1913098E-2,1.9145556E-2,2.4864543E-2,3.3924613E-2,2.844627E-2,4.9709454E-2,5.276613E-2,6.600548E-2,-4.3500255E-5,3.4099746E-2,4.9211208E-2,6.9579534E-2,4.615821E-2,5.8767658E-2,6.3572146E-2,7.9953104E-2,6.0570095E-2,7.4619494E-2],"split_indices":[7,11,7,7,7,11,11,11,11,11,8,8,8,8,7,8,8,11,8,7,11,11,5,0,11,11,7,0,11,6,8,0,11,6,8,8,8,9,8,8,8,8,7,7,10,0,0,6,9,8,0,8,7,0,7,0,0,11,7,0,0,7,0,0,0,0,0,0,0,0,0,0,0,0,0,0,0,0,0,0,0,0,0,0,0,0,0,0,0,0,0,0,0,0,0,0,0,0,0,0,0,0,0,0,0,0,0,0,0,0,0,0,0],"split_type":[0,0,0,0,0,0,0,0,0,0,0,0,0,0,0,0,0,0,0,0,0,0,0,0,0,0,0,0,0,0,0,0,0,0,0,0,0,0,0,0,0,0,0,0,0,0,0,0,0,0,0,0,0,0,0,0,0,0,0,0,0,0,0,0,0,0,0,0,0,0,0,0,0,0,0,0,0,0,0,0,0,0,0,0,0,0,0,0,0,0,0,0,0,0,0,0,0,0,0,0,0,0,0,0,0,0,0,0,0,0,0,0,0],"sum_hessian":[9.584E3,7.022E3,2.562E3,4.054E3,2.968E3,1.554E3,1.008E3,2.743E3,1.311E3,1.414E3,1.554E3,4.15E2,1.139E3,5.73E2,4.35E2,7.98E2,1.945E3,5.84E2,7.27E2,1.135E3,2.79E2,1.5E3,5.4E1,3.12E2,1.03E2,1.074E3,6.5E1,4E1,5.33E2,1.76E2,2.59E2,6.5E1,7.33E2,1.742E3,2.03E2,1.99E2,3.85E2,5.04E2,2.23E2,4.22E2,7.13E2,1.95E2,8.4E1,1.259E3,2.41E2,1.6E1,3.8E1,4.2E1,2.7E2,2.5E1,7.8E1,9.91E2,8.3E1,1.4E1,5.1E1,2E1,2E1,1.09E2,4.24E2,1.39E2,3.7E1,2.26E2,3.3E1,3.58E2,3.75E2,2.79E2,1.463E3,1.9E2,1.3E1,1.5E2,4.9E1,3.05E2,8E1,1.28E2,3.76E2,2.04E2,1.9E1,3.96E2,2.6E1,8.1E1,6.32E2,3.2E1,1.63E2,1.6E1,6.8E1,2.72E2,9.87E2,5.6E1,1.85E2,2.2E1,2E1,7.8E1,1.92E2,1.2E1,1.3E1,3.5E1,4.3E1,8.01E2,1.9E2,1.5E1,6.8E1,3.9E1,1.2E1,1.1E1,9.8E1,3.82E2,4.2E1,3.4E1,1.05E2,2.4E1,1.3E1,5.6E1,1.7E2],"tree_param":{"num_deleted":"0","num_feature":"13","num_nodes":"113","size_leaf_vector":"1"}},{"base_weights":[-4.4478374E-3,-2.8903612E-1,5.2283055E-1,-4.549582E-1,-1.98911E-2,2.3108618E-1,8.180799E-1,-6.530535E-1,-3.0069703E-1,-1.782159E-1,1.9172478E-1,1.2257225E-1,3.623116E-1,6.808689E-1,1.1251268E0,-8.2116455E-1,-5.612834E-1,-4.5386788E-1,-2.10995E-1,-3.3130807E-1,-7.988204E-2,1.7490815E-1,3.633877E-2,4.6903133E-2,3.338751E-1,4.393154E-1,1.9799419E-1,5.7039905E-1,8.311411E-1,9.591307E-1,1.2949195E0,-8.5148525E-1,-5.339258E-1,-5.930652E-1,-2.0653215E-1,-4.832957E-1,-8.5449696E-2,-2.603284E-1,5.2739303E-3,-3.623849E-1,7.31788E-2,-1.5070893E-1,9.2542976E-2,-7.085405E-3,2.1212178E-1,-2.643509E-1,8.2902625E-2,2.9239184E-1,4.907324E-2,4.2227286E-1,5.0090235E-2,4.855633E-2,3.7679496E-1,5.0842553E-1,7.5370854E-1,1.4346622E-1,8.850028E-1,8.461284E-1,1.0469546E0,1.2537751E0,8.217424E-2,-5.6161188E-2,-4.3820273E-2,-2.2510674E-2,-3.126998E-2,-3.5743017E-2,-2.794823E-2,-1.7115345E-2,-7.7227876E-3,-2.7875284E-2,-1.8606154E-2,-1.0934808E-2,2.487649E-3,-2.0127283E-2,-1.0661619E-2,-2.1554246E-3,2.4994114E-2,-2.8916152E-2,-1.5904984E-2,9.2341015E-3,-4.7773146E-3,-1.0018455E-2,4.97405E-3,2.8658593E-3,3.077178E-2,-1.4738454E-2,2.8488885E-3,6.2732534E-3,1.6721422E-2,-7.6266276E-3,-1.7039444E-2,1.49703035E-2,1.7012906E-3,2.1029346E-2,7.996993E-3,2.2168176E-2,4.6683133E-2,1.0699619E-3,9.823255E-3,5.964461E-3,2.3700528E-2,3.9903928E-2,2.5894264E-2,3.6772214E-2,5.0093435E-2,-0E0,1.4731883E-2,2.747437E-2,4.9920034E-2,4.026883E-2,5.607117E-2,6.860321E-2,5.3430583E-2,5.7688706E-2,7.073707E-2],"categories":[],"categories_nodes":[],"categories_segments":[],"categories_sizes":[],"default_left":[0,0,0,0,0,0,0,0,0,0,0,0,0,0,0,0,0,0,0,0,0,0,0,0,0,0,0,0,0,0,0,0,0,0,0,0,0,0,0,0,0,0,0,0,0,0,0,0,0,0,0,0,0,0,0,0,0,0,0,0,0,0,0,0,0,0,0,0,0,0,0,0,0,0,0,0,0,0,0,0,0,0,0,0,0,0,0,0,0,0,0,0,0,0,0,0,0,0,0,0,0,0,0,0,0,0,0,0,0,0,0,0,0,0,0],"id":1,"left_children":[1,3,5,7,9,11,13,15,17,19,21,23,25,27,29,31,33,35,37,39,41,43,-1,45,47,49,51,53,55,57,59,61,63,65,67,69,71,73,75,77,79,81,83,85,87,89,91,93,-1,95,-1,97,99,101,103,105,107,109,111,113,-1,-1,-1,-1,-1,-1,-1,-1,-1,-1,-1,-1,-1,-1,-1,-1,-1,-1,-1,-1,-1,-1,-1,-1,-1,-1,-1,-1,-1,-1,-1,-1,-1,-1,-1,-1,-1,-1,-1,-1,-1,-1,-1,-1,-1,-1,-1,-1,-1,-1,-1,-1,-1,-1,-1],"loss_changes":[1.4526012E3,2.807218E2,2.921394E2,1.1871185E2,8.035698E1,2.4253784E1,7.0691284E1,2.6022339E1,2.9966064E1,2.0612167E1,8.232956E0,1.4913308E1,9.689835E0,1.9116333E1,1.4160095E1,4.9897766E0,1.2322235E1,8.687622E0,1.4750889E1,6.7743835E0,1.0221117E1,6.7400627E0,0E0,7.7104335E0,5.7247715E0,4.176811E0,6.5608244E0,7.438629E0,1.814087E1,2.2364502E0,1.7347107E0,3.5173035E0,1.6479492E-1,5.10614E0,5.862384E-1,3.430481E0,9.505714E-1,7.878708E0,5.375415E0,5.710785E0,6.2043047E-1,5.12004E0,4.513124E0,2.7172909E0,7.712246E0,4.0177488E-1,6.158972E0,3.189352E0,0E0,2.1558075E0,0E0,4.9916744E-1,1.8316126E0,3.0145874E0,1.8112183E0,6.9469845E-1,7.0143127E0,1.8957367E0,1.3111572E0,1.8553772E0,0E0,0E0,0E0,0E0,0E0,0E0,0E0,0E0,0E0,0E0,0E0,0E0,0E0,0E0,0E0,0E0,0E0,0E0,0E0,0E0,0E0,0E0,0E0,0E0,0E0,0E0,0E0,0E0,0E0,0E0,0E0,0E0,0E0,0E0,0E0,0E0,0E0,0E0,0E0,0E0,0E0,0E0,0E0,0E0,0E0,0E0,0E0,0E0,0E0,0E0,0E0,0E0,0E0,0E0,0E0],"parents":[2147483647,0,0,1,1,2,2,3,3,4,4,5,5,6,6,7,7,8,8,9,9,10,10,11,11,12,12,13,13,14,14,15,15,16,16,17,17,18,18,19,19,20,20,21,21,23,23,24,24,25,25,26,26,27,27,28,28,29,29,30,30,31,31,32,32,33,33,34,34,35,35,36,36,37,37,38,38,39,39,40,40,41,41,42,42,43,43,44,44,45,45,46,46,47,47,49,49,51,51,52,52,53,53,54,54,55,55,56,56,57,57,58,58,59,59],"right_children":[2,4,6,8,10,12,14,16,18,20,22,24,26,28,30,32,34,36,38,40,42,44,-1,46,48,50,52,54,56,58,60,62,64,66,68,70,72,74,76,78,80,82,84,86,88,90,92,94,-1,96,-1,98,100,102,104,106,108,110,112,114,-1,-1,-1,-1,-1,-1,-1,-1,-1,-1,-1,-1,-1,-1,-1,-1,-1,-1,-1,-1,-1,-1,-1,-1,-1,-1,-1,-1,-1,-1,-1,-1,-1,-1,-1,-1,-1,-1,-1,-1,-1,-1,-1,-1,-1,-1,-1,-1,-1,-1,-1,-1,-1,-1,-1],"split_conditions":[8.587816E1,1.6319662E1,1.6720741E1,7.897965E1,8.107453E1,1.6507261E1,9.5436615E1,7.289826E1,1.591845E1,7.5869064E1,1.719624E1,8.983187E1,2.813E3,1.7038155E1,1.7305227E1,1.6468157E1,1.6451916E1,1.6383078E1,1.6451916E1,1.6597708E1,1.6477983E1,1.6338373E1,3.633877E-2,1.61502E1,9.659083E1,1.719624E1,2.44E2,1.6611996E1,1.5978864E1,1.3E1,1.6715971E1,1.6100069E1,2.813E3,1.591845E1,1.09E2,8.371807E1,1.56E2,8.170962E1,1.7068558E1,7.098969E1,1.6720741E1,1.6555334E1,1.7130419E1,1.5992507E1,1.6520727E1,1.6016815E1,7E-1,3E0,4.907324E-2,6E0,5.0090235E-2,1.6515175E1,1.634358E1,4.38E2,1.6954157E1,2.6571428E1,8.7596596E1,1.6715971E1,1.31E2,1.7363455E1,8.217424E-2,-5.6161188E-2,-4.3820273E-2,-2.2510674E-2,-3.126998E-2,-3.5743017E-2,-2.794823E-2,-1.7115345E-2,-7.7227876E-3,-2.7875284E-2,-1.8606154E-2,-1.0934808E-2,2.487649E-3,-2.0127283E-2,-1.0661619E-2,-2.1554246E-3,2.4994114E-2,-2.8916152E-2,-1.5904984E-2,9.2341015E-3,-4.7773146E-3,-1.0018455E-2,4.97405E-3,2.8658593E-3,3.077178E-2,-1.4738454E-2,2.8488885E-3,6.2732534E-3,1.6721422E-2,-7.6266276E-3,-1.7039444E-2,1.49703035E-2,1.7012906E-3,2.1029346E-2,7.996993E-3,2.2168176E-2,4.6683133E-2,1.0699619E-3,9.823255E-3,5.964461E-3,2.3700528E-2,3.9903928E-2,2.5894264E-2,3.6772214E-2,5.0093435E-2,-0E0,1.4731883E-2,2.747437E-2,4.9920034E-2,4.026883E-2,5.607117E-2,6.860321E-2,5.3430583E-2,5.7688706E-2,7.073707E-2],"split_indices":[11,7,7,11,11,7,11,11,7,11,8,11,9,7,7,8,8,8,8,7,8,8,0,8,11,8,0,8,8,10,8,8,9,7,0,11,0,11,8,11,7,7,8,8,7,8,4,10,0,3,0,8,8,9,8,5,11,8,9,7,0,0,0,0,0,0,0,0,0,0,0,0,0,0,0,0,0,0,0,0,0,0,0,0,0,0,0,0,0,0,0,0,0,0,0,0,0,0,0,0,0,0,0,0,0,0,0,0,0,0,0,0,0,0,0],"split_type":[0,0,0,0,0,0,0,0,0,0,0,0,0,0,0,0,0,0,0,0,0,0,0,0,0,0,0,0,0,0,0,0,0,0,0,0,0,0,0,0,0,0,0,0,0,0,0,0,0,0,0,0,0,0,0,0,0,0,0,0,0,0,0,0,0,0,0,0,0,0,0,0,0,0,0,0,0,0,0,0,0,0,0,0,0,0,0,0,0,0,0,0,0,0,0,0,0,0,0,0,0,0,0,0,0,0,0,0,0,0,0,0,0,0,0],"sum_hessian":[9.68E3,6.287E3,3.393E3,3.889E3,2.398E3,1.707E3,1.686E3,1.702E3,2.187E3,1.372E3,1.026E3,9.35E2,7.72E2,1.166E3,5.2E2,6E2,1.102E3,8.07E2,1.38E3,5.36E2,8.36E2,9.92E2,3.4E1,6.89E2,2.46E2,5.25E2,2.47E2,6.73E2,4.93E2,2.64E2,2.56E2,5.42E2,5.8E1,1.011E3,9.1E1,7.47E2,6E1,1.124E3,2.56E2,4.98E2,3.8E1,5.93E2,2.43E2,1.68E2,8.24E2,7.1E1,6.18E2,2.3E2,1.6E1,5.08E2,1.7E1,1.35E2,1.12E2,5.04E2,1.69E2,3.6E1,4.57E2,1.17E2,1.47E2,2.19E2,3.7E1,8.7E1,4.55E2,1.8E1,4E1,5.14E2,4.97E2,3.2E1,5.9E1,5.96E2,1.51E2,3.2E1,2.8E1,3.97E2,7.27E2,2.33E2,2.3E1,1.37E2,3.61E2,2.4E1,1.4E1,5.18E2,7.5E1,2.25E2,1.8E1,3.1E1,1.37E2,4.19E2,4.05E2,2.2E1,4.9E1,1.28E2,4.9E2,1.36E2,9.4E1,4.97E2,1.1E1,1.12E2,2.3E1,2.2E1,9E1,5.2E1,4.52E2,1.22E2,4.7E1,1.7E1,1.9E1,4.7E1,4.1E2,7.9E1,3.8E1,2.7E1,1.2E2,5.6E1,1.63E2],"tree_param":{"num_deleted":"0","num_feature":"13","num_nodes":"115","size_leaf_vector":"1"}},{"base_weights":[-4.070854E-3,-2.292634E-1,6.031517E-1,-5.121224E-1,-9.0140335E-2,4.1405296E-1,8.961862E-1,-7.4514097E-1,-4.070749E-1,-2.782008E-1,6.991709E-2,2.808448E-1,5.427166E-1,7.3597276E-1,1.1224657E0,-8.4528697E-1,-6.3239735E-1,-4.810047E-1,-2.2706194E-1,-4.709501E-1,-1.961791E-1,-6.902891E-2,2.0199436E-1,2.223521E-1,5.109322E-1,4.327495E-1,6.1573917E-1,2.3915902E-1,7.790382E-1,9.664741E-1,1.2305262E0,-8.740719E-1,-6.020997E-1,-7.7174944E-1,-5.9043455E-1,-6.672218E-1,-4.1125703E-1,-2.8599957E-1,2.095191E-2,-6.468037E-1,-3.5540885E-1,-2.622129E-1,3.763674E-2,-1.1408314E-1,2.8324702E-1,1.5755914E-1,4.5050085E-1,-8.550245E-2,2.5245956E-1,4.5372425E-3,5.5182785E-1,3.9941186E-1,4.9582146E-2,9.47053E-1,5.858779E-1,2.7609533E-2,1.4257309E-1,3.4324813E-1,8.1011415E-1,8.771355E-1,1.080078E0,1.147745E0,7.074475E-2,-5.7274938E-2,-4.4867635E-2,-3.7236497E-2,-1.8292062E-2,-2.999878E-2,-4.5364514E-2,-2.2200037E-2,-3.4823604E-2,-4.5594774E-2,-3.164004E-2,-2.346222E-2,-1.1118666E-2,-1.7420761E-2,7.755166E-3,-3.845536E-3,1.1543579E-2,-4.9739186E-2,-3.244753E-2,-2.7786594E-2,-1.6228216E-2,-2.0631103E-2,-8.542805E-3,-1.0081232E-3,2.8774511E-2,-8.708695E-3,5.151943E-3,1.1051501E-2,5.852103E-2,1.9855897E-3,1.0991638E-2,1.329477E-2,3.299977E-2,6.425862E-3,-2.1272646E-2,8.258574E-4,1.5379057E-2,1.7725391E-2,3.1461302E-2,2.0625481E-2,4.3264713E-2,4.0168513E-2,5.707446E-2,2.9849764E-2,4.6113748E-2,2.2632687E-3,1.5640061E-2,2.7407227E-2,3.234748E-3,4.1568223E-2,6.0589448E-2,4.530549E-2,5.9517838E-2,5.458257E-2,6.4890616E-2,5.854557E-2,7.476353E-2],"categories":[],"categories_nodes":[],"categories_segments":[],"categories_sizes":[],"default_left":[0,0,0,0,0,0,0,0,0,0,0,0,0,0,0,0,0,0,0,0,0,0,0,0,0,0,0,0,0,0,0,0,0,0,0,0,0,0,0,0,0,0,0,0,0,0,0,0,0,0,0,0,0,0,0,0,0,0,0,0,0,0,0,0,0,0,0,0,0,0,0,0,0,0,0,0,0,0,0,0,0,0,0,0,0,0,0,0,0,0,0,0,0,0,0,0,0,0,0,0,0,0,0,0,0,0,0,0,0,0,0,0,0,0,0,0,0,0,0],"id":2,"left_children":[1,3,5,7,9,11,13,15,17,19,21,23,25,27,29,31,33,35,37,39,41,43,45,47,49,51,53,55,57,59,61,63,65,67,69,71,73,75,77,79,81,83,85,87,89,91,93,95,97,-1,99,101,-1,103,105,-1,107,109,111,113,115,117,-1,-1,-1,-1,-1,-1,-1,-1,-1,-1,-1,-1,-1,-1,-1,-1,-1,-1,-1,-1,-1,-1,-1,-1,-1,-1,-1,-1,-1,-1,-1,-1,-1,-1,-1,-1,-1,-1,-1,-1,-1,-1,-1,-1,-1,-1,-1,-1,-1,-1,-1,-1,-1,-1,-1,-1,-1],"loss_changes":[1.3153485E3,2.7607513E2,1.4398468E2,5.6442688E1,1.4162405E2,2.7003723E1,3.6617737E1,7.84433E0,2.1136658E1,3.4114487E1,4.6651646E1,1.0377163E1,6.295929E0,1.2658722E1,6.6323853E0,2.3916626E0,1.7478943E0,1.4512878E1,6.8272743E0,1.2960785E1,2.3464928E1,1.964379E1,1.4316086E1,5.7790165E0,2.6714973E0,5.0347137E0,4.4958954E0,1.1954777E0,7.276703E0,1.3620911E0,1.1369934E0,2.2178955E0,8.164139E-1,9.335098E-1,2.4745483E0,4.1354065E0,4.0658417E0,6.1180534E0,1.612541E0,2.8386917E0,3.2694588E0,1.4773705E1,9.413474E0,1.1001112E1,8.610633E0,6.2011166E0,6.4074974E0,3.5417345E0,4.434025E0,0E0,9.0857315E-1,1.7994308E0,0E0,5.364876E-1,3.5165558E0,0E0,5.0420874E-1,1.6873312E0,5.7499084E0,4.0296173E-1,1.2866211E-1,1.2585602E0,0E0,0E0,0E0,0E0,0E0,0E0,0E0,0E0,0E0,0E0,0E0,0E0,0E0,0E0,0E0,0E0,0E0,0E0,0E0,0E0,0E0,0E0,0E0,0E0,0E0,0E0,0E0,0E0,0E0,0E0,0E0,0E0,0E0,0E0,0E0,0E0,0E0,0E0,0E0,0E0,0E0,0E0,0E0,0E0,0E0,0E0,0E0,0E0,0E0,0E0,0E0,0E0,0E0,0E0,0E0,0E0,0E0],"parents":[2147483647,0,0,1,1,2,2,3,3,4,4,5,5,6,6,7,7,8,8,9,9,10,10,11,11,12,12,13,13,14,14,15,15,16,16,17,17,18,18,19,19,20,20,21,21,22,22,23,23,24,24,25,25,26,26,27,27,28,28,29,29,30,30,31,31,32,32,33,33,34,34,35,35,36,36,37,37,38,38,39,39,40,40,41,41,42,42,43,43,44,44,45,45,46,46,47,47,48,48,50,50,51,51,53,53,54,54,56,56,57,57,58,58,59,59,60,60,61,61],"right_children":[2,4,6,8,10,12,14,16,18,20,22,24,26,28,30,32,34,36,38,40,42,44,46,48,50,52,54,56,58,60,62,64,66,68,70,72,74,76,78,80,82,84,86,88,90,92,94,96,98,-1,100,102,-1,104,106,-1,108,110,112,114,116,118,-1,-1,-1,-1,-1,-1,-1,-1,-1,-1,-1,-1,-1,-1,-1,-1,-1,-1,-1,-1,-1,-1,-1,-1,-1,-1,-1,-1,-1,-1,-1,-1,-1,-1,-1,-1,-1,-1,-1,-1,-1,-1,-1,-1,-1,-1,-1,-1,-1,-1,-1,-1,-1,-1,-1,-1,-1],"split_conditions":[1.6544008E1,1.6154968E1,1.6925396E1,1.15E2,1.36E2,2.09E2,3.24E2,2E0,1.71E2,9.3E1,1.6319662E1,1.6563221E1,1.6723068E1,1.6100069E1,1.7305227E1,1.6383078E1,9E1,1.6021807E1,2.31E2,1.6320093E1,1.6580706E1,2.22E2,1.6661013E1,9.6E1,7.6E1,1.6796438E1,1E2,6.25E-1,1.61E2,4.37E2,6E0,6E1,1.5915099E1,1.5818269E1,4.16E2,1.36E2,1.6383078E1,1.6383078E1,1.6185097E1,1.6182137E1,7E1,1.6320093E1,1.7130419E1,1.6454697E1,3.03E2,1.6372099E1,2.5625E1,1.6990818E1,1.6130184E1,4.5372425E-3,1.6459791E1,4.1E2,4.9582146E-2,1.2E1,1.6908365E1,2.7609533E-2,2.6714285E1,1.7184347E1,1.6908365E1,1.6609308E1,1.668187E1,1.6715971E1,7.074475E-2,-5.7274938E-2,-4.4867635E-2,-3.7236497E-2,-1.8292062E-2,-2.999878E-2,-4.5364514E-2,-2.2200037E-2,-3.4823604E-2,-4.5594774E-2,-3.164004E-2,-2.346222E-2,-1.1118666E-2,-1.7420761E-2,7.755166E-3,-3.845536E-3,1.1543579E-2,-4.9739186E-2,-3.244753E-2,-2.7786594E-2,-1.6228216E-2,-2.0631103E-2,-8.542805E-3,-1.0081232E-3,2.8774511E-2,-8.708695E-3,5.151943E-3,1.1051501E-2,5.852103E-2,1.9855897E-3,1.0991638E-2,1.329477E-2,3.299977E-2,6.425862E-3,-2.1272646E-2,8.258574E-4,1.5379057E-2,1.7725391E-2,3.1461302E-2,2.0625481E-2,4.3264713E-2,4.0168513E-2,5.707446E-2,2.9849764E-2,4.6113748E-2,2.2632687E-3,1.5640061E-2,2.7407227E-2,3.234748E-3,4.1568223E-2,6.0589448E-2,4.530549E-2,5.9517838E-2,5.458257E-2,6.4890616E-2,5.854557E-2,7.476353E-2],"split_indices":[7,7,7,0,0,0,0,3,0,0,7,8,7,8,7,8,0,6,0,7,8,0,6,0,0,6,9,4,0,0,3,0,7,7,9,0,8,8,6,8,0,7,8,8,0,8,5,6,8,0,6,0,0,10,8,0,5,7,8,6,8,8,0,0,0,0,0,0,0,0,0,0,0,0,0,0,0,0,0,0,0,0,0,0,0,0,0,0,0,0,0,0,0,0,0,0,0,0,0,0,0,0,0,0,0,0,0,0,0,0,0,0,0,0,0,0,0,0,0],"split_type":[0,0,0,0,0,0,0,0,0,0,0,0,0,0,0,0,0,0,0,0,0,0,0,0,0,0,0,0,0,0,0,0,0,0,0,0,0,0,0,0,0,0,0,0,0,0,0,0,0,0,0,0,0,0,0,0,0,0,0,0,0,0,0,0,0,0,0,0,0,0,0,0,0,0,0,0,0,0,0,0,0,0,0,0,0,0,0,0,0,0,0,0,0,0,0,0,0,0,0,0,0,0,0,0,0,0,0,0,0,0,0,0,0,0,0,0,0,0,0],"sum_hessian":[9.619E3,7.017E3,2.602E3,2.313E3,4.704E3,1.582E3,1.02E3,7.18E2,1.595E3,2.163E3,2.541E3,7.78E2,8.04E2,5.98E2,4.22E2,3.79E2,3.39E2,1.13E3,4.65E2,6.45E2,1.518E3,1.238E3,1.303E3,6.21E2,1.57E2,3.22E2,4.82E2,4.8E1,5.5E2,1.74E2,2.48E2,3.38E2,4.1E1,7.7E1,2.62E2,3.07E2,8.23E2,3.76E2,8.9E1,2.55E2,3.9E2,1.184E3,3.34E2,1.098E3,1.4E2,1.106E3,1.97E2,5.5E1,5.66E2,1.4E1,1.43E2,3.02E2,2E1,3.9E1,4.43E2,1.2E1,3.6E1,3.7E1,5.13E2,9.9E1,7.5E1,1.27E2,1.21E2,5.8E1,2.8E2,3E1,1.1E1,2E1,5.7E1,6.4E1,1.98E2,9.3E1,2.14E2,7.34E2,8.9E1,3.46E2,3E1,6E1,2.9E1,3.4E1,2.21E2,9.7E1,2.93E2,5.45E2,6.39E2,3E2,3.4E1,8.95E2,2.03E2,1.28E2,1.2E1,3.09E2,7.97E2,8.8E1,1.09E2,3.3E1,2.2E1,7E1,4.96E2,1.9E1,1.24E2,2.91E2,1.1E1,1.5E1,2.4E1,3.98E2,4.5E1,2.2E1,1.4E1,2.3E1,1.4E1,4.59E2,5.4E1,8.7E1,1.2E1,5.1E1,2.4E1,1.03E2,2.4E1],"tree_param":{"num_deleted":"0","num_feature":"13","num_nodes":"119","size_leaf_vector":"1"}},{"base_weights":[-1.8242799E-3,-2.678303E-1,4.5310602E-1,-4.1480875E-1,-2.4973571E-2,1.9896862E-1,7.1771675E-1,-6.2112254E-1,-2.9626763E-1,-1.5325613E-1,1.6726698E-1,4.101613E-2,2.8335285E-1,5.957592E-1,1.0076696E0,-7.530263E-1,-5.357529E-1,-4.2722598E-1,-2.1215802E-1,-2.7390942E-1,-5.545092E-2,1.4972514E-1,6.641171E-1,-2.2908414E-2,3.5732055E-1,2.441994E-1,5.152388E-1,4.8960307E-1,7.569869E-1,7.490228E-1,1.0775102E0,-7.817782E-1,-4.5773977E-1,-5.63671E-1,-2.145137E-1,-4.585622E-1,-5.639578E-2,-2.531129E-1,-1.9451046E-2,-2.9930994E-1,-1.1537176E-2,-1.093423E-1,1.2559673E-1,1.2574421E-1,4.0117356E-1,2.894419E-2,3.9950654E-2,-3.0808806E-1,2.707509E-2,2.785064E-1,5.1482044E-2,3.5810032E-1,1.8833889E-1,3.6686763E-1,6.210752E-1,4.569173E-1,7.338525E-1,1.6381942E-1,7.9544526E-1,6.8029225E-1,4.8243158E-2,1.0393105E0,6.932461E-2,-5.2131403E-2,-4.0079735E-2,-1.6398598E-2,-2.6776247E-2,-4.1062266E-2,-2.8880518E-2,-1.6901132E-2,-5.963808E-3,-2.59483E-2,-1.6192935E-2,-8.3633615E-3,4.195962E-3,-1.661243E-2,-6.414711E-3,-3.082316E-3,2.045096E-2,-2.270092E-2,-1.2602919E-2,2.9117872E-3,-1.2277543E-2,-8.369705E-3,9.345174E-4,4.3830425E-3,3.322596E-2,-7.1715127E-4,8.576263E-3,2.5269857E-2,-6.4106585E-5,-2.7675744E-2,-1.4026173E-2,5.4886617E-4,3.650081E-2,9.361473E-4,1.7976904E-2,8.214609E-3,2.2022663E-2,1.8237198E-2,8.2212305E-3,2.2425612E-2,9.871419E-3,5.497137E-2,3.026361E-2,4.172999E-2,2.3491882E-2,2.8510176E-2,4.477433E-2,3.9353576E-3,1.3227941E-2,3.1260032E-2,4.616597E-2,2.7629681E-2,3.9353747E-2,5.073808E-2,6.1744593E-2],"categories":[],"categories_nodes":[],"categories_segments":[],"categories_sizes":[],"default_left":[0,0,0,0,0,0,0,0,0,0,0,0,0,0,0,0,0,0,0,0,0,0,0,0,0,0,0,0,0,0,0,0,0,0,0,0,0,0,0,0,0,0,0,0,0,0,0,0,0,0,0,0,0,0,0,0,0,0,0,0,0,0,0,0,0,0,0,0,0,0,0,0,0,0,0,0,0,0,0,0,0,0,0,0,0,0,0,0,0,0,0,0,0,0,0,0,0,0,0,0,0,0,0,0,0,0,0,0,0,0,0,0,0,0,0,0,0],"id":3,"left_children":[1,3,5,7,9,11,13,15,17,19,21,23,25,27,29,31,33,35,37,39,41,43,45,47,49,51,53,55,57,59,61,63,65,67,69,71,73,75,77,79,81,83,85,87,89,-1,-1,91,93,95,-1,97,99,101,103,105,107,109,111,113,-1,115,-1,-1,-1,-1,-1,-1,-1,-1,-1,-1,-1,-1,-1,-1,-1,-1,-1,-1,-1,-1,-1,-1,-1,-1,-1,-1,-1,-1,-1,-1,-1,-1,-1,-1,-1,-1,-1,-1,-1,-1,-1,-1,-1,-1,-1,-1,-1,-1,-1,-1,-1,-1,-1,-1,-1],"loss_changes":[1.1732708E3,2.1834384E2,2.4043878E2,9.307947E1,5.690342E1,2.4294106E1,6.1669983E1,1.543811E1,2.6587204E1,1.6299503E1,7.94549E0,1.2898341E1,1.0695259E1,2.091919E1,8.999939E0,4.42749E0,7.4777527E0,1.0940155E1,1.1615631E1,4.096142E0,7.467882E0,5.3178864E0,9.333992E-2,7.572711E0,4.883154E0,6.410534E0,2.541462E0,5.7579193E0,1.1038269E1,8.336563E-1,2.7409058E0,3.1148682E0,1.8726826E-1,3.9818726E0,6.551204E-1,3.1241913E0,9.972788E-1,8.992912E0,3.888696E0,4.4162483E0,8.0452025E-1,3.4649963E0,3.7267506E0,3.8218756E0,2.1669579E0,0E0,0E0,6.704631E-1,4.87955E0,1.3440585E0,0E0,3.4364777E0,3.6067715E0,5.84074E-1,2.0523949E0,4.099533E0,1.512497E0,1.8988669E-1,5.881195E0,4.49337E-1,0E0,3.158722E0,0E0,0E0,0E0,0E0,0E0,0E0,0E0,0E0,0E0,0E0,0E0,0E0,0E0,0E0,0E0,0E0,0E0,0E0,0E0,0E0,0E0,0E0,0E0,0E0,0E0,0E0,0E0,0E0,0E0,0E0,0E0,0E0,0E0,0E0,0E0,0E0,0E0,0E0,0E0,0E0,0E0,0E0,0E0,0E0,0E0,0E0,0E0,0E0,0E0,0E0,0E0,0E0,0E0,0E0,0E0],"parents":[2147483647,0,0,1,1,2,2,3,3,4,4,5,5,6,6,7,7,8,8,9,9,10,10,11,11,12,12,13,13,14,14,15,15,16,16,17,17,18,18,19,19,20,20,21,21,22,22,23,23,24,24,25,25,26,26,27,27,28,28,29,29,30,30,31,31,32,32,33,33,34,34,35,35,36,36,37,37,38,38,39,39,40,40,41,41,42,42,43,43,44,44,47,47,48,48,49,49,51,51,52,52,53,53,54,54,55,55,56,56,57,57,58,58,59,59,61,61],"right_children":[2,4,6,8,10,12,14,16,18,20,22,24,26,28,30,32,34,36,38,40,42,44,46,48,50,52,54,56,58,60,62,64,66,68,70,72,74,76,78,80,82,84,86,88,90,-1,-1,92,94,96,-1,98,100,102,104,106,108,110,112,114,-1,116,-1,-1,-1,-1,-1,-1,-1,-1,-1,-1,-1,-1,-1,-1,-1,-1,-1,-1,-1,-1,-1,-1,-1,-1,-1,-1,-1,-1,-1,-1,-1,-1,-1,-1,-1,-1,-1,-1,-1,-1,-1,-1,-1,-1,-1,-1,-1,-1,-1,-1,-1,-1,-1,-1,-1],"split_conditions":[8.542238E1,1.6319662E1,1.671721E1,7.789272E1,8.107453E1,1.6319662E1,9.5436615E1,7.245169E1,1.591845E1,7.665556E1,1.719624E1,9.009358E1,1.6661013E1,1.7038155E1,1.3E1,1.6515175E1,1.6451916E1,1.6383078E1,1.6454697E1,1.6544008E1,1.6580706E1,1.6796438E1,2.36E1,1.61502E1,9.461314E1,7.5E-1,1.87E2,1.6908365E1,1.5978864E1,1.66508E1,1.6715971E1,6E1,6.32E2,1.6021807E1,1.09E2,8.371807E1,8.242578E1,8.323506E1,1.7068558E1,7.171049E1,1.6990818E1,1.6524475E1,1.7130419E1,1.6338373E1,1.6998377E1,2.894419E-2,3.9950654E-2,8.565012E1,1.7068558E1,1.634358E1,5.1482044E-2,1.6370298E1,3E0,1.6990818E1,1.6686361E1,1.15E2,1.6731821E1,2.6571428E1,8.897386E1,3.5875E1,4.8243158E-2,1.7363455E1,6.932461E-2,-5.2131403E-2,-4.0079735E-2,-1.6398598E-2,-2.6776247E-2,-4.1062266E-2,-2.8880518E-2,-1.6901132E-2,-5.963808E-3,-2.59483E-2,-1.6192935E-2,-8.3633615E-3,4.195962E-3,-1.661243E-2,-6.414711E-3,-3.082316E-3,2.045096E-2,-2.270092E-2,-1.2602919E-2,2.9117872E-3,-1.2277543E-2,-8.369705E-3,9.345174E-4,4.3830425E-3,3.322596E-2,-7.1715127E-4,8.576263E-3,2.5269857E-2,-6.4106585E-5,-2.7675744E-2,-1.4026173E-2,5.4886617E-4,3.650081E-2,9.361473E-4,1.7976904E-2,8.214609E-3,2.2022663E-2,1.8237198E-2,8.2212305E-3,2.2425612E-2,9.871419E-3,5.497137E-2,3.026361E-2,4.172999E-2,2.3491882E-2,2.8510176E-2,4.477433E-2,3.9353576E-3,1.3227941E-2,3.1260032E-2,4.616597E-2,2.7629681E-2,3.9353747E-2,5.073808E-2,6.1744593E-2],"split_indices":[11,7,7,11,11,7,11,11,7,11,8,11,6,7,10,8,8,8,8,7,8,6,5,8,11,4,0,8,8,6,8,0,9,6,0,11,11,11,8,11,6,7,8,8,6,0,0,11,8,8,0,8,10,6,6,9,7,5,11,5,0,7,0,0,0,0,0,0,0,0,0,0,0,0,0,0,0,0,0,0,0,0,0,0,0,0,0,0,0,0,0,0,0,0,0,0,0,0,0,0,0,0,0,0,0,0,0,0,0,0,0,0,0,0,0,0,0],"split_type":[0,0,0,0,0,0,0,0,0,0,0,0,0,0,0,0,0,0,0,0,0,0,0,0,0,0,0,0,0,0,0,0,0,0,0,0,0,0,0,0,0,0,0,0,0,0,0,0,0,0,0,0,0,0,0,0,0,0,0,0,0,0,0,0,0,0,0,0,0,0,0,0,0,0,0,0,0,0,0,0,0,0,0,0,0,0,0,0,0,0,0,0,0,0,0,0,0,0,0,0,0,0,0,0,0,0,0,0,0,0,0,0,0,0,0,0,0],"sum_hessian":[9.695E3,6.118E3,3.577E3,3.811E3,2.307E3,1.825E3,1.752E3,1.39E3,2.421E3,1.384E3,9.23E2,6.36E2,1.189E3,1.234E3,5.18E2,5.45E2,8.45E2,9.46E2,1.475E3,6.19E2,7.65E2,8.92E2,3.1E1,5.29E2,1.07E2,1.018E3,1.71E2,7.45E2,4.89E2,1.11E2,4.07E2,4.96E2,4.9E1,7.77E2,6.8E1,8.72E2,7.4E1,1.216E3,2.59E2,5.64E2,5.5E1,5.9E2,1.75E2,8.15E2,7.7E1,1.3E1,1.8E1,7.9E1,4.5E2,9.5E1,1.2E1,3.34E2,6.84E2,7.2E1,9.9E1,6.58E2,8.7E1,3E1,4.59E2,7.7E1,3.4E1,3.46E2,6.1E1,8.1E1,4.15E2,1.1E1,3.8E1,9.2E1,6.85E2,3.4E1,3.4E1,7.58E2,1.14E2,4.3E1,3.1E1,8.59E2,3.57E2,2.37E2,2.2E1,1.95E2,3.69E2,4.2E1,1.3E1,4.33E2,1.57E2,1.61E2,1.4E1,1.58E2,6.57E2,6.6E1,1.1E1,1.4E1,6.5E1,4.39E2,1.1E1,1.7E1,7.8E1,6.7E1,2.67E2,1.3E2,5.54E2,5.6E1,1.6E1,1.2E1,8.7E1,3.9E1,6.19E2,2.9E1,5.8E1,1.5E1,1.5E1,1.04E2,3.55E2,1.9E1,5.8E1,1.84E2,1.62E2],"tree_param":{"num_deleted":"0","num_feature":"13","num_nodes":"117","size_leaf_vector":"1"}},{"base_weights":[-1.3717457E-3,-2.0403056E-1,5.3416723E-1,-3.6529505E-1,1.3768898E-2,3.5519585E-1,8.119159E-1,-4.6638095E-1,-1.558672E-1,-1.4268129E-1,1.5216383E-1,1.2597781E-1,4.4081107E-1,6.6450316E-1,1.0101264E0,-6.562927E-1,-3.7239417E-1,-2.8346303E-1,-5.6189924E-2,-1.7084293E-1,2.5761577E-1,1.2929773E-1,5.592339E-1,7.048695E-2,3.0209285E-1,4.0760952E-1,6.6188264E-1,3.8553253E-1,7.5153804E-1,8.700547E-1,1.1062121E0,-6.837013E-1,-4.1573712E-1,-6.0861194E-1,-3.2943797E-1,-3.3732095E-1,-1.278316E-1,-1.1314523E-1,1.0026032E-1,-3.0019602E-1,-1.0067764E-1,3.383574E-2,1.7659266E-1,-1.3935793E-2,1.762361E-1,3.986637E-1,6.8715423E-1,1.0489002E-1,-1.3850142E-1,1.5560615E-1,3.7321797E-1,3.8834757E-1,6.5214396E-1,5.8184105E-1,4.8719298E-2,5.090345E-1,2.4274807E-1,7.104371E-1,6.2383305E-2,7.9739505E-1,9.7200155E-1,1.0668404E0,7.045875E-2,-4.224978E-2,-3.2922674E-2,-2.6133332E-2,-1.4565317E-2,-4.1843195E-2,-2.8385334E-2,-1.936876E-2,-6.2378985E-3,-2.4888614E-2,-1.588121E-2,-9.182738E-3,1.3170418E-2,1.6846582E-3,-8.331666E-3,3.2261433E-3,2.5181483E-2,-1.7576406E-2,2.0638243E-3,-1.4141277E-2,-2.220065E-3,2.8159071E-3,2.7735963E-2,-1.1539732E-2,2.4942325E-3,6.7599164E-3,1.6771175E-2,5.856772E-3,3.125328E-2,2.6707582E-2,4.110246E-2,1.5595046E-2,3.1125888E-3,-1.9033844E-2,3.5029443E-3,1.2747048E-2,-7.66349E-4,1.0019893E-2,2.2688998E-2,1.8745821E-2,2.5721796E-2,1.7432993E-2,3.870529E-2,2.7608342E-2,4.4247087E-2,1.79957E-2,2.9942302E-2,-0E0,1.7411176E-2,3.5411008E-2,5.172345E-2,4.019797E-2,5.2268974E-2,4.9005978E-2,6.0945988E-2,4.8239E-2,6.015256E-2],"categories":[],"categories_nodes":[],"categories_segments":[],"categories_sizes":[],"default_left":[0,0,0,0,0,0,0,0,0,0,0,0,0,0,0,0,0,0,0,0,0,0,0,0,0,0,0,0,0,0,0,0,0,0,0,0,0,0,0,0,0,0,0,0,0,0,0,0,0,0,0,0,0,0,0,0,0,0,0,0,0,0,0,0,0,0,0,0,0,0,0,0,0,0,0,0,0,0,0,0,0,0,0,0,0,0,0,0,0,0,0,0,0,0,0,0,0,0,0,0,0,0,0,0,0,0,0,0,0,0,0,0,0,0,0,0,0,0,0],"id":4,"left_children":[1,3,5,7,9,11,13,15,17,19,21,23,25,27,29,31,33,35,37,39,41,43,45,47,49,51,53,55,57,59,61,63,65,67,69,71,73,75,77,79,81,-1,83,85,87,89,91,93,95,97,99,101,103,105,-1,107,109,111,-1,113,115,117,-1,-1,-1,-1,-1,-1,-1,-1,-1,-1,-1,-1,-1,-1,-1,-1,-1,-1,-1,-1,-1,-1,-1,-1,-1,-1,-1,-1,-1,-1,-1,-1,-1,-1,-1,-1,-1,-1,-1,-1,-1,-1,-1,-1,-1,-1,-1,-1,-1,-1,-1,-1,-1,-1,-1,-1,-1],"loss_changes":[1.0528843E3,2.4724094E2,1.3220807E2,8.554071E1,6.483672E1,3.172905E1,3.0166504E1,4.8523743E1,1.6716778E1,1.5842989E1,1.4709927E1,4.271352E0,8.490616E0,1.4373474E1,5.567322E0,5.777588E0,1.8384354E1,4.783722E0,6.5997996E0,1.1873539E1,2.6692996E0,1.0136038E1,1.5627155E0,2.4175596E0,1.0322084E0,4.6754913E0,2.7187958E0,2.4250717E0,7.2701416E0,1.0013733E0,1.5434875E0,5.657837E0,8.4111404E-1,3.6235428E0,9.972656E0,2.1602135E0,2.3796396E0,3.2801123E0,2.8661895E0,4.1423035E0,8.175593E0,0E0,3.1478584E0,4.503429E0,7.724121E0,1.9354825E0,4.6661186E-1,2.4787934E0,2.101247E0,5.0805473E-1,5.5801296E-1,3.2994232E0,1.4766884E0,1.6991615E0,0E0,5.0058746E-1,1.2937436E0,5.1675262E0,0E0,6.1909485E-1,2.988739E-1,1.4885864E0,0E0,0E0,0E0,0E0,0E0,0E0,0E0,0E0,0E0,0E0,0E0,0E0,0E0,0E0,0E0,0E0,0E0,0E0,0E0,0E0,0E0,0E0,0E0,0E0,0E0,0E0,0E0,0E0,0E0,0E0,0E0,0E0,0E0,0E0,0E0,0E0,0E0,0E0,0E0,0E0,0E0,0E0,0E0,0E0,0E0,0E0,0E0,0E0,0E0,0E0,0E0,0E0,0E0,0E0,0E0,0E0,0E0],"parents":[2147483647,0,0,1,1,2,2,3,3,4,4,5,5,6,6,7,7,8,8,9,9,10,10,11,11,12,12,13,13,14,14,15,15,16,16,17,17,18,18,19,19,20,20,21,21,22,22,23,23,24,24,25,25,26,26,27,27,28,28,29,29,30,30,31,31,32,32,33,33,34,34,35,35,36,36,37,37,38,38,39,39,40,40,42,42,43,43,44,44,45,45,46,46,47,47,48,48,49,49,50,50,51,51,52,52,53,53,55,55,56,56,57,57,59,59,60,60,61,61],"right_children":[2,4,6,8,10,12,14,16,18,20,22,24,26,28,30,32,34,36,38,40,42,44,46,48,50,52,54,56,58,60,62,64,66,68,70,72,74,76,78,80,82,-1,84,86,88,90,92,94,96,98,100,102,104,106,-1,108,110,112,-1,114,116,118,-1,-1,-1,-1,-1,-1,-1,-1,-1,-1,-1,-1,-1,-1,-1,-1,-1,-1,-1,-1,-1,-1,-1,-1,-1,-1,-1,-1,-1,-1,-1,-1,-1,-1,-1,-1,-1,-1,-1,-1,-1,-1,-1,-1,-1,-1,-1,-1,-1,-1,-1,-1,-1,-1,-1,-1,-1],"split_conditions":[1.6544008E1,8.183827E1,1.6925396E1,1.6320093E1,1.6200733E1,8.523227E1,9.5436615E1,7.56629E1,7.665556E1,8.962154E1,1.6840672E1,1.6412477E1,1.6732327E1,8.824867E1,1.7305227E1,1.6451853E1,1.6021807E1,1.6454697E1,1.6580706E1,1.591845E1,7E-1,1.6370298E1,1.719624E1,1.6990818E1,8.040314E1,9.612238E1,1.719624E1,1.7184618E1,1.758909E1,1.6633528E1,1.6715971E1,7.1186584E1,7.342482E1,1.36E2,1.6454697E1,7.098969E1,1.7068558E1,3.49E2,1.7130419E1,1.6383078E1,1.6370298E1,3.383574E-2,9.2718544E1,1.6322422E1,8.897386E1,1.8E2,1.41E2,2.11E2,9.6E1,1.11E2,1.6597708E1,1.6854797E1,1.6663513E1,2.71E2,4.8719298E-2,1.634358E1,1.71E2,1.6661013E1,6.2383305E-2,1.03061104E2,6E0,1.7363455E1,7.045875E-2,-4.224978E-2,-3.2922674E-2,-2.6133332E-2,-1.4565317E-2,-4.1843195E-2,-2.8385334E-2,-1.936876E-2,-6.2378985E-3,-2.4888614E-2,-1.588121E-2,-9.182738E-3,1.3170418E-2,1.6846582E-3,-8.331666E-3,3.2261433E-3,2.5181483E-2,-1.7576406E-2,2.0638243E-3,-1.4141277E-2,-2.220065E-3,2.8159071E-3,2.7735963E-2,-1.1539732E-2,2.4942325E-3,6.7599164E-3,1.6771175E-2,5.856772E-3,3.125328E-2,2.6707582E-2,4.110246E-2,1.5595046E-2,3.1125888E-3,-1.9033844E-2,3.5029443E-3,1.2747048E-2,-7.66349E-4,1.0019893E-2,2.2688998E-2,1.8745821E-2,2.5721796E-2,1.7432993E-2,3.870529E-2,2.7608342E-2,4.4247087E-2,1.79957E-2,2.9942302E-2,-0E0,1.7411176E-2,3.5411008E-2,5.172345E-2,4.019797E-2,5.2268974E-2,4.9005978E-2,6.0945988E-2,4.8239E-2,6.015256E-2],"split_indices":[7,11,7,7,7,11,11,11,11,11,8,8,8,11,7,8,6,8,8,7,4,8,8,6,11,11,8,7,7,8,8,11,11,0,8,11,8,9,8,8,8,0,11,7,11,0,0,9,0,0,7,7,7,0,0,8,0,6,0,11,3,7,0,0,0,0,0,0,0,0,0,0,0,0,0,0,0,0,0,0,0,0,0,0,0,0,0,0,0,0,0,0,0,0,0,0,0,0,0,0,0,0,0,0,0,0,0,0,0,0,0,0,0,0,0,0,0,0,0],"split_type":[0,0,0,0,0,0,0,0,0,0,0,0,0,0,0,0,0,0,0,0,0,0,0,0,0,0,0,0,0,0,0,0,0,0,0,0,0,0,0,0,0,0,0,0,0,0,0,0,0,0,0,0,0,0,0,0,0,0,0,0,0,0,0,0,0,0,0,0,0,0,0,0,0,0,0,0,0,0,0,0,0,0,0,0,0,0,0,0,0,0,0,0,0,0,0,0,0,0,0,0,0,0,0,0,0,0,0,0,0,0,0,0,0,0,0,0,0,0,0],"sum_hessian":[9.701E3,7.038E3,2.663E3,4.044E3,2.994E3,1.62E3,1.043E3,2.727E3,1.317E3,1.405E3,1.589E3,4.41E2,1.179E3,5.99E2,4.44E2,9.02E2,1.825E3,5.77E2,7.4E2,1.313E3,9.2E1,1.505E3,8.4E1,3.36E2,1.05E2,1.026E3,1.53E2,1.43E2,4.56E2,1.82E2,2.62E2,8.09E2,9.3E1,2.8E2,1.545E3,4.28E2,1.49E2,5.43E2,1.97E2,4.61E2,8.52E2,1.6E1,7.6E1,3.71E2,1.134E3,3.8E1,4.6E1,2.89E2,4.7E1,3.5E1,7E1,9.52E2,7.4E1,1.16E2,3.7E1,7.6E1,6.7E1,4.15E2,4.1E1,1.08E2,7.4E1,2.21E2,4.1E1,3.35E2,4.74E2,6.2E1,3.1E1,9E1,1.9E2,1.352E3,1.93E2,1.07E2,3.21E2,1.34E2,1.5E1,1.21E2,4.22E2,1.78E2,1.9E1,4.28E2,3.3E1,2.28E2,6.24E2,5.6E1,2E1,8.6E1,2.85E2,8.26E2,3.08E2,1.5E1,2.3E1,1.4E1,3.2E1,5.8E1,2.31E2,2.3E1,2.4E1,2.4E1,1.1E1,1.5E1,5.5E1,6.59E2,2.93E2,1.3E1,6.1E1,9.1E1,2.5E1,1.7E1,5.9E1,1.7E1,5E1,3.44E2,7.1E1,8.5E1,2.3E1,5.5E1,1.9E1,5.2E1,1.69E2],"tree_param":{"num_deleted":"0","num_feature":"13","num_nodes":"119","size_leaf_vector":"1"}},{"base_weights":[-4.015136E-3,-2.348843E-1,4.2421907E-1,-3.6593866E-1,-2.2519905E-2,2.5646347E-1,7.5113285E-1,-5.919411E-1,-2.710483E-1,-1.6775586E-1,1.357788E-1,1.51549E-1,4.035514E-1,6.2022424E-1,9.395861E-1,-6.921089E-1,-4.936298E-1,-3.1082344E-1,-4.056338E-2,-2.6656327E-1,-6.7286775E-2,9.590762E-2,3.277591E-1,9.17148E-2,2.878069E-1,3.8198537E-1,6.8472713E-1,3.8538256E-1,6.739589E-1,8.3965135E-1,1.0843436E0,-5.1314812E-2,-6.677165E-1,-5.6874305E-1,-4.028219E-1,-4.1698548E-1,-2.4583569E-1,-6.940625E-2,2.0721445E-2,-3.1768602E-1,-1.1068574E-1,-1.27427E-1,6.8067655E-2,-2.6577273E-1,1.1126407E-1,2.680805E-1,5.610497E-1,3.732395E-2,2.5668672E-1,1.7988607E-1,4.5735142E-1,4.7679093E-1,3.3482054E-1,2.735837E-2,7.2879267E-1,1.2891534E-1,4.7114268E-1,6.4392346E-1,9.2199063E-1,7.9656273E-1,6.4360395E-2,6.7211434E-2,1.0192945E0,-3.975883E-2,-3.1024195E-2,-3.2328963E-2,-1.9862019E-2,-3.12523E-2,-1.9481303E-2,-3.197927E-2,-2.0320434E-2,-1.9412963E-2,-9.435858E-3,-7.505809E-3,1.1923492E-3,-1.962912E-2,-7.4254307E-3,-1.0109356E-2,5.082935E-3,-7.665305E-3,1.0067807E-2,1.68869E-4,1.3231995E-2,-2.4061395E-2,4.5039682E-4,1.6292561E-3,1.0501088E-2,1.0364306E-2,2.5227178E-2,2.4708746E-2,3.6581397E-2,-8.370516E-3,3.5057385E-3,1.1865462E-2,3.410763E-2,1.9150157E-2,3.8214512E-3,1.1989773E-2,2.801853E-2,2.1109942E-2,3.216186E-2,4.893954E-3,1.942655E-2,4.4611715E-2,3.1513367E-2,1.6162587E-2,1.0286651E-3,1.0675126E-2,3.210105E-2,2.6302474E-2,3.7056018E-2,4.2419992E-2,5.728714E-2,3.9252024E-2,4.8752267E-2,4.953965E-2,6.0662683E-2],"categories":[],"categories_nodes":[],"categories_segments":[],"categories_sizes":[],"default_left":[0,0,0,0,0,0,0,0,0,0,0,0,0,0,0,0,0,0,0,0,0,0,0,0,0,0,0,0,0,0,0,0,0,0,0,0,0,0,0,0,0,0,0,0,0,0,0,0,0,0,0,0,0,0,0,0,0,0,0,0,0,0,0,0,0,0,0,0,0,0,0,0,0,0,0,0,0,0,0,0,0,0,0,0,0,0,0,0,0,0,0,0,0,0,0,0,0,0,0,0,0,0,0,0,0,0,0,0,0,0,0,0,0,0,0,0,0],"id":5,"left_children":[1,3,5,7,9,11,13,15,17,19,21,23,25,27,29,31,33,35,37,39,41,43,45,47,49,51,53,55,57,59,61,-1,63,65,67,69,71,73,-1,75,77,79,81,83,85,87,89,91,93,95,97,99,101,-1,103,105,107,109,111,113,-1,-1,115,-1,-1,-1,-1,-1,-1,-1,-1,-1,-1,-1,-1,-1,-1,-1,-1,-1,-1,-1,-1,-1,-1,-1,-1,-1,-1,-1,-1,-1,-1,-1,-1,-1,-1,-1,-1,-1,-1,-1,-1,-1,-1,-1,-1,-1,-1,-1,-1,-1,-1,-1,-1,-1,-1],"loss_changes":[9.484498E2,1.7343958E2,1.8413934E2,8.253583E1,5.4708393E1,3.4209854E1,2.7820984E1,1.1026184E1,2.4855408E1,1.228561E1,8.664623E0,1.053363E1,5.4416656E0,8.334015E0,6.350128E0,3.2861938E0,3.7843018E0,1.5886032E1,4.8879557E0,4.933136E0,5.023965E0,5.2307873E0,2.6038017E0,8.065231E0,7.1515236E0,3.7273178E0,3.0311584E-1,2.7047615E0,3.7895508E0,3.8420715E0,1.5113068E0,0E0,3.119934E0,1.8552856E0,1.7679291E0,5.9958496E0,1.1573761E1,2.4180155E0,0E0,3.9106293E0,2.4686475E0,2.0139432E0,2.1599166E0,1.9423962E0,6.12284E0,2.2827635E0,2.9323196E-1,3.6353617E0,2.9364605E0,4.592371E0,2.1727486E0,2.7539444E0,3.6080627E0,0E0,4.8670197E-1,5.7441014E-1,3.115631E0,3.1894836E0,7.3841476E-1,1.5155334E0,0E0,0E0,1.0268097E0,0E0,0E0,0E0,0E0,0E0,0E0,0E0,0E0,0E0,0E0,0E0,0E0,0E0,0E0,0E0,0E0,0E0,0E0,0E0,0E0,0E0,0E0,0E0,0E0,0E0,0E0,0E0,0E0,0E0,0E0,0E0,0E0,0E0,0E0,0E0,0E0,0E0,0E0,0E0,0E0,0E0,0E0,0E0,0E0,0E0,0E0,0E0,0E0,0E0,0E0,0E0,0E0,0E0,0E0],"parents":[2147483647,0,0,1,1,2,2,3,3,4,4,5,5,6,6,7,7,8,8,9,9,10,10,11,11,12,12,13,13,14,14,15,15,16,16,17,17,18,18,19,19,20,20,21,21,22,22,23,23,24,24,25,25,26,26,27,27,28,28,29,29,30,30,32,32,33,33,34,34,35,35,36,36,37,37,39,39,40,40,41,41,42,42,43,43,44,44,45,45,46,46,47,47,48,48,49,49,50,50,51,51,52,52,54,54,55,55,56,56,57,57,58,58,59,59,62,62],"right_children":[2,4,6,8,10,12,14,16,18,20,22,24,26,28,30,32,34,36,38,40,42,44,46,48,50,52,54,56,58,60,62,-1,64,66,68,70,72,74,-1,76,78,80,82,84,86,88,90,92,94,96,98,100,102,-1,104,106,108,110,112,114,-1,-1,116,-1,-1,-1,-1,-1,-1,-1,-1,-1,-1,-1,-1,-1,-1,-1,-1,-1,-1,-1,-1,-1,-1,-1,-1,-1,-1,-1,-1,-1,-1,-1,-1,-1,-1,-1,-1,-1,-1,-1,-1,-1,-1,-1,-1,-1,-1,-1,-1,-1,-1,-1,-1,-1,-1],"split_conditions":[8.578352E1,1.6319662E1,1.6864883E1,7.694439E1,8.022376E1,1.6544008E1,9.506479E1,7.245169E1,1.6443249E1,7.665556E1,1.6611996E1,1.6539383E1,9.612238E1,1.634358E1,1.7363455E1,1.5992507E1,1.591845E1,8.03783E1,1.7068558E1,1.6454697E1,1.6477983E1,1.6016815E1,1.719624E1,9.0514175E1,1.6423193E1,5.51E2,1.661167E1,1.5958301E1,1.6908365E1,1.7068558E1,2.813E3,-5.1314812E-2,1.6290813E1,1.6383078E1,1.6194778E1,1.6021807E1,1.5941555E1,8.175725E1,2.0721445E-2,1.6520727E1,1.6361631E1,9E0,1.6329426E1,1.683335E1,1.6520727E1,1.657439E1,2.6083334E1,1.6021807E1,5E0,1.6546759E1,1.83E2,1.6720741E1,1.6303795E1,2.735837E-2,1.6844406E1,7E-1,8.6530045E1,8.875219E1,1.7121801E1,4.37E2,6.4360395E-2,6.7211434E-2,4.55E2,-3.975883E-2,-3.1024195E-2,-3.2328963E-2,-1.9862019E-2,-3.12523E-2,-1.9481303E-2,-3.197927E-2,-2.0320434E-2,-1.9412963E-2,-9.435858E-3,-7.505809E-3,1.1923492E-3,-1.962912E-2,-7.4254307E-3,-1.0109356E-2,5.082935E-3,-7.665305E-3,1.0067807E-2,1.68869E-4,1.3231995E-2,-2.4061395E-2,4.5039682E-4,1.6292561E-3,1.0501088E-2,1.0364306E-2,2.5227178E-2,2.4708746E-2,3.6581397E-2,-8.370516E-3,3.5057385E-3,1.1865462E-2,3.410763E-2,1.9150157E-2,3.8214512E-3,1.1989773E-2,2.801853E-2,2.1109942E-2,3.216186E-2,4.893954E-3,1.942655E-2,4.4611715E-2,3.1513367E-2,1.6162587E-2,1.0286651E-3,1.0675126E-2,3.210105E-2,2.6302474E-2,3.7056018E-2,4.2419992E-2,5.728714E-2,3.9252024E-2,4.8752267E-2,4.953965E-2,6.0662683E-2],"split_indices":[11,7,7,11,11,7,11,11,8,11,8,6,11,8,7,8,7,11,8,8,8,8,8,11,7,9,7,8,8,8,9,0,6,8,6,6,7,11,0,7,7,10,7,7,7,7,5,6,3,6,0,7,8,0,7,4,11,11,7,0,0,0,0,0,0,0,0,0,0,0,0,0,0,0,0,0,0,0,0,0,0,0,0,0,0,0,0,0,0,0,0,0,0,0,0,0,0,0,0,0,0,0,0,0,0,0,0,0,0,0,0,0,0,0,0,0,0],"split_type":[0,0,0,0,0,0,0,0,0,0,0,0,0,0,0,0,0,0,0,0,0,0,0,0,0,0,0,0,0,0,0,0,0,0,0,0,0,0,0,0,0,0,0,0,0,0,0,0,0,0,0,0,0,0,0,0,0,0,0,0,0,0,0,0,0,0,0,0,0,0,0,0,0,0,0,0,0,0,0,0,0,0,0,0,0,0,0,0,0,0,0,0,0,0,0,0,0,0,0,0,0,0,0,0,0,0,0,0,0,0,0,0,0,0,0,0,0],"sum_hessian":[9.593E3,6.233E3,3.36E3,3.854E3,2.379E3,2.221E3,1.139E3,1.139E3,2.715E3,1.241E3,1.138E3,1.297E3,9.24E2,6.73E2,4.66E2,5.63E2,5.76E2,2.315E3,4E2,6.25E2,6.16E2,9.43E2,1.95E2,9.02E2,3.95E2,8.59E2,6.5E1,1.26E2,5.47E2,2.77E2,1.89E2,4.7E1,5.16E2,3.14E2,2.62E2,8.78E2,1.437E3,3.75E2,2.5E1,4.7E2,1.55E2,4.27E2,1.89E2,3.8E1,9.05E2,1.56E2,3.9E1,6.79E2,2.23E2,2.42E2,1.53E2,2.84E2,5.75E2,1.4E1,5.1E1,3.2E1,9.4E1,4.89E2,5.8E1,2.48E2,2.9E1,5.2E1,1.37E2,2.89E2,2.27E2,2.7E2,4.4E1,4.8E1,2.14E2,1.59E2,7.19E2,5.46E2,8.91E2,2.13E2,1.62E2,3.72E2,9.8E1,1.13E2,4.2E1,4.08E2,1.9E1,1.39E2,5E1,2.3E1,1.5E1,4.61E2,4.44E2,1.14E2,4.2E1,2.2E1,1.7E1,8.5E1,5.94E2,2.04E2,1.9E1,9.2E1,1.5E2,3.3E1,1.2E2,1.68E2,1.16E2,5.6E1,5.19E2,2.9E1,2.2E1,1.2E1,2E1,3E1,6.4E1,1.1E2,3.79E2,3.1E1,2.7E1,1.55E2,9.3E1,7.3E1,6.4E1],"tree_param":{"num_deleted":"0","num_feature":"13","num_nodes":"117","size_leaf_vector":"1"}},{"base_weights":[4.5765527E-3,-2.0644167E-1,4.2081514E-1,-3.4746537E-1,-1.9647326E-2,2.4992381E-1,7.3364353E-1,-5.8951694E-1,-2.7065462E-1,-1.4284009E-1,1.3037741E-1,1.0835956E-1,3.4195125E-1,6.14016E-1,8.881045E-1,-4.608667E-2,-5.659417E-1,-3.7493238E-1,-1.9263944E-1,-1.8490507E-1,7.012458E-2,8.7724306E-2,2.8684148E-1,7.644362E-2,4.2003956E-1,4.58386E-1,2.8392422E-1,8.19811E-2,6.380038E-1,7.566302E-1,9.8812264E-1,-6.8422025E-1,-5.1898843E-1,-4.0092978E-1,-1.1593268E-1,-3.2661143E-1,-1.3583957E-1,-3.583912E-1,-1.4425907E-1,1.9585563E-2,3.538494E-1,6.928719E-2,4.039295E-1,5.9369754E-2,3.4748918E-1,-2.0278549E-2,1.6262312E-1,6.116468E-1,2.1296078E-1,3.9014986E-1,5.605076E-1,1.7212068E-1,3.5442546E-1,-4.9794586E-3,1.1746413E-2,6.1132544E-1,9.404557E-1,6.854095E-1,8.765757E-1,9.5247686E-1,6.3086025E-2,-3.8218826E-2,-1.7916651E-2,-3.090823E-2,-2.3403179E-2,-2.6167246E-2,-1.859476E-2,-9.272549E-3,1.9678816E-2,-2.929482E-2,-1.54624395E-2,-1.1953526E-2,-3.172513E-3,-2.2798253E-2,-8.272459E-3,3.6063633E-4,-9.92855E-3,-2.55215E-3,1.06289545E-2,3.3482812E-2,9.79257E-3,-1.4833661E-2,4.408795E-3,1.6497023E-2,2.9226925E-2,1.4365063E-2,-2.4543344E-3,2.1715129E-2,1.2239553E-2,8.312607E-3,-3.8811695E-3,-9.847173E-3,1.0297689E-2,2.1722212E-2,5.6820683E-2,-4.8011853E-4,1.6673192E-2,1.9822508E-2,4.3426998E-2,2.4616817E-2,3.8271192E-2,7.7833654E-3,2.9345147E-2,1.819654E-2,4.5764964E-2,3.1408958E-2,4.5782942E-2,3.675422E-2,6.0456444E-2,2.9938525E-2,4.0620413E-2,4.3217782E-2,5.667443E-2,4.7514565E-2,5.5172518E-2],"categories":[],"categories_nodes":[],"categories_segments":[],"categories_sizes":[],"default_left":[0,0,0,0,0,0,0,0,0,0,0,0,0,0,0,0,0,0,0,0,0,0,0,0,0,0,0,0,0,0,0,0,0,0,0,0,0,0,0,0,0,0,0,0,0,0,0,0,0,0,0,0,0,0,0,0,0,0,0,0,0,0,0,0,0,0,0,0,0,0,0,0,0,0,0,0,0,0,0,0,0,0,0,0,0,0,0,0,0,0,0,0,0,0,0,0,0,0,0,0,0,0,0,0,0,0,0,0,0,0,0,0,0,0,0],"id":6,"left_children":[1,3,5,7,9,11,13,15,17,19,21,23,25,27,29,-1,31,33,35,37,39,41,43,45,47,49,51,53,55,57,59,61,63,65,67,69,71,73,75,77,79,81,83,85,87,89,91,93,95,97,99,101,103,-1,-1,105,107,109,111,113,-1,-1,-1,-1,-1,-1,-1,-1,-1,-1,-1,-1,-1,-1,-1,-1,-1,-1,-1,-1,-1,-1,-1,-1,-1,-1,-1,-1,-1,-1,-1,-1,-1,-1,-1,-1,-1,-1,-1,-1,-1,-1,-1,-1,-1,-1,-1,-1,-1,-1,-1,-1,-1,-1,-1],"loss_changes":[8.4361786E2,1.6784955E2,1.7260376E2,6.739307E1,5.068728E1,2.717929E1,2.0817505E1,5.247864E0,2.2359573E1,1.3507357E1,8.208427E0,8.143994E0,8.453827E0,8.140686E0,6.1987305E0,0E0,4.268982E0,7.879776E0,1.1955048E1,8.812244E0,3.5219493E0,5.6161165E0,3.6013927E0,6.251283E0,2.9154425E0,2.7866592E0,6.605606E0,6.878236E-1,4.690857E0,1.558754E0,1.3820801E0,1.9051132E0,2.529541E0,4.9450684E0,2.9315672E0,3.9027863E0,7.3254967E0,3.1066666E0,6.2072105E0,2.5338943E0,1.6133194E0,3.986619E0,6.013365E-1,1.2487745E0,1.3170242E0,3.183805E0,3.9363508E0,3.386032E0,8.290731E-1,2.1284904E0,2.4095345E0,3.2857141E0,4.0270615E0,0E0,0E0,3.5227509E0,1.9670906E0,1.0049667E0,6.563835E-1,8.0830383E-1,0E0,0E0,0E0,0E0,0E0,0E0,0E0,0E0,0E0,0E0,0E0,0E0,0E0,0E0,0E0,0E0,0E0,0E0,0E0,0E0,0E0,0E0,0E0,0E0,0E0,0E0,0E0,0E0,0E0,0E0,0E0,0E0,0E0,0E0,0E0,0E0,0E0,0E0,0E0,0E0,0E0,0E0,0E0,0E0,0E0,0E0,0E0,0E0,0E0,0E0,0E0,0E0,0E0,0E0,0E0],"parents":[2147483647,0,0,1,1,2,2,3,3,4,4,5,5,6,6,7,7,8,8,9,9,10,10,11,11,12,12,13,13,14,14,16,16,17,17,18,18,19,19,20,20,21,21,22,22,23,23,24,24,25,25,26,26,27,27,28,28,29,29,30,30,31,31,32,32,33,33,34,34,35,35,36,36,37,37,38,38,39,39,40,40,41,41,42,42,43,43,44,44,45,45,46,46,47,47,48,48,49,49,50,50,51,51,52,52,55,55,56,56,57,57,58,58,59,59],"right_children":[2,4,6,8,10,12,14,16,18,20,22,24,26,28,30,-1,32,34,36,38,40,42,44,46,48,50,52,54,56,58,60,62,64,66,68,70,72,74,76,78,80,82,84,86,88,90,92,94,96,98,100,102,104,-1,-1,106,108,110,112,114,-1,-1,-1,-1,-1,-1,-1,-1,-1,-1,-1,-1,-1,-1,-1,-1,-1,-1,-1,-1,-1,-1,-1,-1,-1,-1,-1,-1,-1,-1,-1,-1,-1,-1,-1,-1,-1,-1,-1,-1,-1,-1,-1,-1,-1,-1,-1,-1,-1,-1,-1,-1,-1,-1,-1],"split_conditions":[8.616169E1,1.6237238E1,1.6864883E1,7.56629E1,8.107453E1,1.6484549E1,9.506479E1,1.6079885E1,1.591845E1,1.6611996E1,1.6661013E1,9.291286E1,5.51E2,1.5958301E1,1.7305227E1,-4.608667E-2,6.9910095E1,1.6383078E1,1.634358E1,8E1,1.7130419E1,1.6925396E1,1.651572E1,1.6290813E1,1.6326187E1,1.6663513E1,1.6604454E1,2.13E2,1.758909E1,1.6633528E1,1.6715971E1,1.6393469E1,1.6230906E1,3E0,1.5904926E1,1.5958301E1,1.44E2,1.6519365E1,3.49E2,1.6388268E1,1.645944E1,1.6062975E1,4E0,1.6505684E1,3.49E2,7E-1,1.6140823E1,9.506479E1,3.03E2,1.719624E1,2.65E2,5E0,1.7068558E1,-4.9794586E-3,1.1746413E-2,1.689053E1,2.39E2,1.3E1,6E0,6E0,6.3086025E-2,-3.8218826E-2,-1.7916651E-2,-3.090823E-2,-2.3403179E-2,-2.6167246E-2,-1.859476E-2,-9.272549E-3,1.9678816E-2,-2.929482E-2,-1.54624395E-2,-1.1953526E-2,-3.172513E-3,-2.2798253E-2,-8.272459E-3,3.6063633E-4,-9.92855E-3,-2.55215E-3,1.06289545E-2,3.3482812E-2,9.79257E-3,-1.4833661E-2,4.408795E-3,1.6497023E-2,2.9226925E-2,1.4365063E-2,-2.4543344E-3,2.1715129E-2,1.2239553E-2,8.312607E-3,-3.8811695E-3,-9.847173E-3,1.0297689E-2,2.1722212E-2,5.6820683E-2,-4.8011853E-4,1.6673192E-2,1.9822508E-2,4.3426998E-2,2.4616817E-2,3.8271192E-2,7.7833654E-3,2.9345147E-2,1.819654E-2,4.5764964E-2,3.1408958E-2,4.5782942E-2,3.675422E-2,6.0456444E-2,2.9938525E-2,4.0620413E-2,4.3217782E-2,5.667443E-2,4.7514565E-2,5.5172518E-2],"split_indices":[11,7,7,11,11,7,11,8,7,8,6,11,9,8,7,0,11,8,8,0,8,7,7,6,7,7,7,0,7,8,8,8,6,3,7,8,0,7,9,7,7,8,3,7,9,4,8,11,0,8,0,3,8,0,0,8,0,10,3,3,0,0,0,0,0,0,0,0,0,0,0,0,0,0,0,0,0,0,0,0,0,0,0,0,0,0,0,0,0,0,0,0,0,0,0,0,0,0,0,0,0,0,0,0,0,0,0,0,0,0,0,0,0,0,0],"split_type":[0,0,0,0,0,0,0,0,0,0,0,0,0,0,0,0,0,0,0,0,0,0,0,0,0,0,0,0,0,0,0,0,0,0,0,0,0,0,0,0,0,0,0,0,0,0,0,0,0,0,0,0,0,0,0,0,0,0,0,0,0,0,0,0,0,0,0,0,0,0,0,0,0,0,0,0,0,0,0,0,0,0,0,0,0,0,0,0,0,0,0,0,0,0,0,0,0,0,0,0,0,0,0,0,0,0,0,0,0,0,0,0,0,0,0],"sum_hessian":[9.604E3,6.373E3,3.231E3,3.631E3,2.742E3,2.09E3,1.141E3,8.74E2,2.757E3,1.506E3,1.236E3,8.24E2,1.266E3,6.44E2,4.97E2,7E1,8.04E2,1.179E3,1.578E3,1.258E3,2.48E2,9.72E2,2.64E2,7.48E2,7.6E1,4.2E2,8.46E2,2.8E1,6.16E2,2.16E2,2.81E2,2.27E2,5.77E2,1.071E3,1.08E2,4.69E2,1.109E3,2.38E2,1.02E3,2.11E2,3.7E1,9.19E2,5.3E1,5.6E1,2.08E2,3.52E2,3.96E2,3.9E1,3.7E1,2.53E2,1.67E2,3.28E2,5.18E2,1.2E1,1.6E1,5.67E2,4.9E1,1.37E2,7.9E1,2.37E2,4.4E1,2.11E2,1.6E1,3.47E2,2.3E2,4.21E2,6.5E2,9.7E1,1.1E1,7.1E1,3.98E2,5.22E2,5.87E2,1.8E2,5.8E1,2.14E2,8.06E2,1.53E2,5.8E1,1.4E1,2.3E1,3.2E1,8.87E2,3.2E1,2.1E1,1.9E1,3.7E1,1.41E2,6.7E1,8E1,2.72E2,3E1,3.66E2,2.7E1,1.2E1,1.1E1,2.6E1,2.41E2,1.2E1,1E2,6.7E1,3.06E2,2.2E1,5.02E2,1.6E1,5.09E2,5.8E1,2.1E1,2.8E1,4.9E1,8.8E1,5.7E1,2.2E1,1.23E2,1.14E2],"tree_param":{"num_deleted":"0","num_feature":"13","num_nodes":"115","size_leaf_vector":"1"}},{"base_weights":[7.219367E-4,-2.3616451E-1,3.3885297E-1,-3.4390053E-1,-4.4453334E-2,1.9319953E-1,6.636615E-1,-5.2372E-1,-2.5852105E-1,-2.2112262E-1,3.8089607E-2,5.7742953E-2,3.0923963E-1,5.5497307E-1,8.44783E-1,-8.246872E-1,-5.020642E-1,-2.9593033E-1,-2.9337961E-2,-2.6324874E-1,-7.499359E-2,2.3588581E-2,5.516718E-1,-1.7009917E-1,9.754778E-2,2.5418967E-1,4.331833E-1,3.6402693E-1,6.314088E-1,7.5689775E-1,9.694861E-1,-4.821413E-2,-3.926333E-2,-6.146567E-1,-4.4653335E-1,-3.6460593E-1,-2.1615556E-1,-5.0664056E-2,1.5888E-2,-3.0425283E-1,-1.0116657E-1,-1.6447775E-1,1.0195572E-1,-4.7584966E-2,9.99898E-2,4.0747204E-1,3.9586857E-2,-2.3417564E-1,5.194783E-2,4.4000987E-2,2.3341529E-1,1.11879244E-1,2.8939414E-1,3.8552773E-1,6.2443936E-1,1.6942753E-1,4.4714913E-1,6.100791E-1,5.6525737E-2,7.0984024E-1,5.7457622E-2,9.458636E-1,6.2035438E-2,-3.523865E-2,-1.9171648E-2,-2.7729318E-2,-2.0106584E-2,-2.284148E-2,-1.6730284E-2,-2.445533E-2,-9.6067805E-3,-5.4050293E-3,3.1282438E-3,-2.2765787E-2,-1.4215106E-2,-8.201724E-3,1.684073E-2,-1.288259E-2,5.8200676E-4,-3.5163658E-3,1.1345268E-2,-5.2294354E-3,3.9510964E-3,-1.7259299E-3,7.795632E-3,1.3353368E-2,2.9603213E-2,-2.0879917E-2,-1.0312381E-2,1.0621972E-2,-2.2007407E-4,9.953495E-3,5.334896E-4,1.0892081E-2,4.0165953E-2,3.6700637E-4,1.3171676E-2,1.4958369E-2,3.4867596E-2,2.571293E-2,1.5682392E-2,2.9132241E-2,4.4683322E-2,-2.8913438E-3,1.2985179E-2,2.6359241E-2,1.4227885E-2,3.119922E-2,5.000785E-2,3.0818416E-2,4.097028E-2,4.527138E-2,5.3922255E-2],"categories":[],"categories_nodes":[],"categories_segments":[],"categories_sizes":[],"default_left":[0,0,0,0,0,0,0,0,0,0,0,0,0,0,0,0,0,0,0,0,0,0,0,0,0,0,0,0,0,0,0,0,0,0,0,0,0,0,0,0,0,0,0,0,0,0,0,0,0,0,0,0,0,0,0,0,0,0,0,0,0,0,0,0,0,0,0,0,0,0,0,0,0,0,0,0,0,0,0,0,0,0,0,0,0,0,0,0,0,0,0,0,0,0,0,0,0,0,0,0,0,0,0,0,0,0,0,0,0,0,0,0,0],"id":7,"left_children":[1,3,5,7,9,11,13,15,17,19,21,23,25,27,29,31,33,35,37,39,41,43,45,47,49,51,53,55,57,59,61,-1,-1,63,65,67,69,71,-1,73,75,77,79,81,83,85,-1,87,89,91,93,95,97,99,101,103,105,107,-1,109,-1,111,-1,-1,-1,-1,-1,-1,-1,-1,-1,-1,-1,-1,-1,-1,-1,-1,-1,-1,-1,-1,-1,-1,-1,-1,-1,-1,-1,-1,-1,-1,-1,-1,-1,-1,-1,-1,-1,-1,-1,-1,-1,-1,-1,-1,-1,-1,-1,-1,-1,-1,-1],"loss_changes":[7.7716394E2,1.1779614E2,1.88995E2,5.5965973E1,2.9961374E1,4.3347015E1,2.4113525E1,7.436981E0,2.1205444E1,3.990305E0,1.0362469E1,1.1553121E1,1.0049301E1,1.1151413E1,4.7419434E0,2.2270966E-1,6.6951294E0,1.1591217E1,2.3898249E0,3.325035E0,2.3411362E0,7.408155E0,8.342333E-1,2.7126722E0,7.8663282E0,5.115425E0,4.005806E0,3.5180168E0,4.6249237E0,3.6474762E0,3.6968994E-1,0E0,0E0,3.5838318E0,3.5578918E0,3.5728455E0,8.772022E0,1.7762687E0,0E0,1.8353996E0,2.1839736E0,1.3113923E0,9.132547E-1,4.2270794E0,3.9031181E0,3.9681768E-1,0E0,8.912811E-1,3.6278954E-1,3.7240427E0,4.7522507E0,2.8392856E0,3.271202E0,3.0729637E0,1.3093796E0,1.0982418E0,1.1052017E0,4.845108E0,0E0,1.4493408E0,0E0,6.2623596E-1,0E0,0E0,0E0,0E0,0E0,0E0,0E0,0E0,0E0,0E0,0E0,0E0,0E0,0E0,0E0,0E0,0E0,0E0,0E0,0E0,0E0,0E0,0E0,0E0,0E0,0E0,0E0,0E0,0E0,0E0,0E0,0E0,0E0,0E0,0E0,0E0,0E0,0E0,0E0,0E0,0E0,0E0,0E0,0E0,0E0,0E0,0E0,0E0,0E0,0E0,0E0],"parents":[2147483647,0,0,1,1,2,2,3,3,4,4,5,5,6,6,7,7,8,8,9,9,10,10,11,11,12,12,13,13,14,14,15,15,16,16,17,17,18,18,19,19,20,20,21,21,22,22,23,23,24,24,25,25,26,26,27,27,28,28,29,29,30,30,33,33,34,34,35,35,36,36,37,37,39,39,40,40,41,41,42,42,43,43,44,44,45,45,47,47,48,48,49,49,50,50,51,51,52,52,53,53,54,54,55,55,56,56,57,57,59,59,61,61],"right_children":[2,4,6,8,10,12,14,16,18,20,22,24,26,28,30,32,34,36,38,40,42,44,46,48,50,52,54,56,58,60,62,-1,-1,64,66,68,70,72,-1,74,76,78,80,82,84,86,-1,88,90,92,94,96,98,100,102,104,106,108,-1,110,-1,112,-1,-1,-1,-1,-1,-1,-1,-1,-1,-1,-1,-1,-1,-1,-1,-1,-1,-1,-1,-1,-1,-1,-1,-1,-1,-1,-1,-1,-1,-1,-1,-1,-1,-1,-1,-1,-1,-1,-1,-1,-1,-1,-1,-1,-1,-1,-1,-1,-1,-1,-1],"split_conditions":[8.465865E1,1.6320093E1,1.6864883E1,7.700958E1,7.6813866E1,1.6484549E1,9.5436615E1,1.6079885E1,1.6383078E1,1.6580706E1,1.719624E1,1.591845E1,9.152131E1,8.824867E1,1.7363455E1,1.6021706E1,7.1186584E1,1.629446E1,1.7068558E1,1.6520727E1,1.6330605E1,8.107453E1,2.6083334E1,8.8375946E1,8.8858795E1,1.6370298E1,9.612238E1,1.634358E1,1.6796438E1,1.7130419E1,1.6715971E1,-4.821413E-2,-3.926333E-2,1.6393469E1,1.591845E1,8.03783E1,1.61502E1,8.2661064E1,1.5888E-2,7.3E1,2.64E1,9.8E1,1.680538E1,1.6477983E1,1.634358E1,1.31E2,3.9586857E-2,1.6096989E1,2.54E2,7E-1,9.612238E1,9E0,1.719624E1,3.4285713E1,6E0,1.5958301E1,1.7184618E1,1.758909E1,5.6525737E-2,1.3E1,5.7457622E-2,9.8400345E1,6.2035438E-2,-3.523865E-2,-1.9171648E-2,-2.7729318E-2,-2.0106584E-2,-2.284148E-2,-1.6730284E-2,-2.445533E-2,-9.6067805E-3,-5.4050293E-3,3.1282438E-3,-2.2765787E-2,-1.4215106E-2,-8.201724E-3,1.684073E-2,-1.288259E-2,5.8200676E-4,-3.5163658E-3,1.1345268E-2,-5.2294354E-3,3.9510964E-3,-1.7259299E-3,7.795632E-3,1.3353368E-2,2.9603213E-2,-2.0879917E-2,-1.0312381E-2,1.0621972E-2,-2.2007407E-4,9.953495E-3,5.334896E-4,1.0892081E-2,4.0165953E-2,3.6700637E-4,1.3171676E-2,1.4958369E-2,3.4867596E-2,2.571293E-2,1.5682392E-2,2.9132241E-2,4.4683322E-2,-2.8913438E-3,1.2985179E-2,2.6359241E-2,1.4227885E-2,3.119922E-2,5.000785E-2,3.0818416E-2,4.097028E-2,4.527138E-2,5.3922255E-2],"split_indices":[11,7,7,11,11,7,11,8,8,8,8,7,11,11,7,7,11,6,8,7,7,11,5,11,11,8,11,8,6,8,8,0,0,8,7,11,8,11,0,0,5,0,8,8,8,0,0,8,0,4,11,10,8,5,3,8,7,7,0,10,0,11,0,0,0,0,0,0,0,0,0,0,0,0,0,0,0,0,0,0,0,0,0,0,0,0,0,0,0,0,0,0,0,0,0,0,0,0,0,0,0,0,0,0,0,0,0,0,0,0,0,0,0],"split_type":[0,0,0,0,0,0,0,0,0,0,0,0,0,0,0,0,0,0,0,0,0,0,0,0,0,0,0,0,0,0,0,0,0,0,0,0,0,0,0,0,0,0,0,0,0,0,0,0,0,0,0,0,0,0,0,0,0,0,0,0,0,0,0,0,0,0,0,0,0,0,0,0,0,0,0,0,0,0,0,0,0,0,0,0,0,0,0,0,0,0,0,0,0,0,0,0,0,0,0,0,0,0,0,0,0,0,0,0,0,0,0,0,0],"sum_hessian":[9.702E3,5.705E3,3.997E3,3.652E3,2.053E3,2.76E3,1.237E3,1.175E3,2.477E3,6.54E2,1.399E3,1.274E3,1.486E3,7.74E2,4.63E2,7.8E1,1.097E3,2.129E3,3.48E2,5.07E2,1.47E2,1.361E3,3.8E1,1.89E2,1.085E3,1.03E3,4.56E2,2.22E2,5.52E2,2.73E2,1.9E2,4.3E1,3.5E1,3.61E2,7.36E2,1.143E3,9.86E2,3.27E2,2.1E1,4.04E2,1.03E2,9.8E1,4.9E1,7.04E2,6.57E2,2.2E1,1.6E1,1.47E2,4.2E1,7.79E2,3.06E2,2.05E2,8.25E2,3.66E2,9E1,6.7E1,1.55E2,5.26E2,2.6E1,2.38E2,3.5E1,1.7E2,2E1,3.12E2,4.9E1,3.78E2,3.58E2,5.4E2,6.03E2,1.34E2,8.52E2,2.25E2,1.02E2,1.01E2,3.03E2,9.2E1,1.1E1,6.9E1,2.9E1,1.9E1,3E1,5E2,2.04E2,1.66E2,4.91E2,1.1E1,1.1E1,3.1E1,1.16E2,1.2E1,3E1,1.51E2,6.28E2,2.89E2,1.7E1,1.15E2,9E1,8E2,2.5E1,1.84E2,1.82E2,6.5E1,2.5E1,1.6E1,5.1E1,1.25E2,3E1,4.81E2,4.5E1,6.6E1,1.72E2,6.1E1,1.09E2],"tree_param":{"num_deleted":"0","num_feature":"13","num_nodes":"113","size_leaf_vector":"1"}},{"base_weights":[4.170994E-3,-2.122437E-1,3.3690593E-1,-3.1603798E-1,-3.1899236E-2,1.4561935E-1,5.555101E-1,-4.4488335E-1,-2.0831351E-1,-1.4094648E-1,1.06257334E-1,9.492464E-2,2.9099092E-1,4.599973E-1,7.926523E-1,-5.947311E-1,-3.9120537E-1,-2.4378699E-1,-1.03106145E-2,-1.502533E-1,3.665462E-2,6.900285E-2,2.6211178E-1,-1.8732378E-1,1.255245E-1,2.5829238E-1,5.296701E-1,3.762517E-1,5.8420503E-1,6.881866E-1,8.968418E-1,-6.216754E-1,-1.8671203E-2,-6.428723E-1,-3.7079284E-1,-3.3639115E-1,-1.8249679E-1,-4.1131906E-2,1.9455496E-2,-3.1614247E-1,-1.1122686E-1,1.9689748E-1,2.4393274E-2,2.0385516E-1,4.7475538E-1,-2.4480927E-1,-4.2145334E-2,2.5640237E-1,8.239926E-2,2.3702647E-1,6.1812764E-1,4.587523E-1,4.4879988E-2,3.2838616E-1,4.8840952E-1,1.0448799E-1,6.217759E-1,6.2694526E-1,8.026749E-1,8.023379E-1,9.50274E-1,-3.583026E-2,-2.6292985E-2,-3.7807804E-2,-2.6850881E-2,-3.180661E-2,-1.8365016E-2,-5.143032E-3,-1.8718382E-2,-1.9412337E-2,-8.520466E-3,-5.549335E-3,3.2239468E-3,-1.8502947E-2,6.916594E-4,-8.679842E-3,-3.106734E-4,1.809952E-2,4.482753E-3,3.863613E-4,1.4239262E-2,9.437195E-3,2.8235443E-2,1.7241757E-2,2.8577702E-2,-1.7153775E-2,-1.1122759E-2,-7.209766E-3,4.6969745E-3,8.51028E-3,1.7395891E-2,2.9882197E-3,1.8885849E-2,1.1946367E-2,3.6176335E-2,2.287228E-2,4.191675E-2,3.1870786E-2,1.3962696E-2,1.0219116E-2,2.0135479E-2,2.4104431E-2,3.632386E-2,-1.5001008E-3,1.1253495E-2,5.0348658E-2,3.20698E-2,2.6756616E-2,3.7758254E-2,4.0156133E-2,4.907048E-2,3.98821E-2,5.6002308E-2,5.697506E-2,4.8977073E-2],"categories":[],"categories_nodes":[],"categories_segments":[],"categories_sizes":[],"default_left":[0,0,0,0,0,0,0,0,0,0,0,0,0,0,0,0,0,0,0,0,0,0,0,0,0,0,0,0,0,0,0,0,0,0,0,0,0,0,0,0,0,0,0,0,0,0,0,0,0,0,0,0,0,0,0,0,0,0,0,0,0,0,0,0,0,0,0,0,0,0,0,0,0,0,0,0,0,0,0,0,0,0,0,0,0,0,0,0,0,0,0,0,0,0,0,0,0,0,0,0,0,0,0,0,0,0,0,0,0,0,0,0,0,0,0],"id":8,"left_children":[1,3,5,7,9,11,13,15,17,19,21,23,25,27,29,31,33,35,37,39,-1,41,43,45,47,49,51,53,55,57,59,61,-1,63,65,67,69,71,-1,73,75,77,79,81,83,85,87,89,91,93,95,97,-1,99,101,103,105,107,109,111,113,-1,-1,-1,-1,-1,-1,-1,-1,-1,-1,-1,-1,-1,-1,-1,-1,-1,-1,-1,-1,-1,-1,-1,-1,-1,-1,-1,-1,-1,-1,-1,-1,-1,-1,-1,-1,-1,-1,-1,-1,-1,-1,-1,-1,-1,-1,-1,-1,-1,-1,-1,-1,-1,-1],"loss_changes":[6.9125684E2,1.0883673E2,1.5811374E2,5.1149384E1,3.2024635E1,1.4830055E1,3.977832E1,1.3366699E1,1.4101585E1,9.061733E0,5.4058456E0,1.2930705E1,3.96072E0,1.2955475E1,5.2155457E0,2.81073E0,6.2087097E0,9.614449E0,3.481375E0,7.5593643E0,0E0,4.297882E0,2.1451988E0,1.1904464E0,7.5891247E0,3.398241E0,1.1298027E0,3.9283066E0,9.039261E0,1.5292892E0,9.2970276E-1,2.1467285E0,0E0,5.945244E-1,7.335037E0,1.8042984E0,4.3665047E0,1.7785171E0,0E0,2.0597477E0,5.0070953E0,3.044273E0,2.297799E0,1.2130885E0,2.1061325E-1,2.2828722E-1,5.088184E-1,2.135847E0,7.2982907E0,2.730526E0,5.910187E-1,1.2445898E0,0E0,3.2790108E0,1.519741E0,5.340632E-1,3.5493164E0,1.422905E0,2.226448E-1,1.0145226E0,2.849884E-1,0E0,0E0,0E0,0E0,0E0,0E0,0E0,0E0,0E0,0E0,0E0,0E0,0E0,0E0,0E0,0E0,0E0,0E0,0E0,0E0,0E0,0E0,0E0,0E0,0E0,0E0,0E0,0E0,0E0,0E0,0E0,0E0,0E0,0E0,0E0,0E0,0E0,0E0,0E0,0E0,0E0,0E0,0E0,0E0,0E0,0E0,0E0,0E0,0E0,0E0,0E0,0E0,0E0,0E0],"parents":[2147483647,0,0,1,1,2,2,3,3,4,4,5,5,6,6,7,7,8,8,9,9,10,10,11,11,12,12,13,13,14,14,15,15,16,16,17,17,18,18,19,19,21,21,22,22,23,23,24,24,25,25,26,26,27,27,28,28,29,29,30,30,31,31,33,33,34,34,35,35,36,36,37,37,39,39,40,40,41,41,42,42,43,43,44,44,45,45,46,46,47,47,48,48,49,49,50,50,51,51,53,53,54,54,55,55,56,56,57,57,58,58,59,59,60,60],"right_children":[2,4,6,8,10,12,14,16,18,20,22,24,26,28,30,32,34,36,38,40,-1,42,44,46,48,50,52,54,56,58,60,62,-1,64,66,68,70,72,-1,74,76,78,80,82,84,86,88,90,92,94,96,98,-1,100,102,104,106,108,110,112,114,-1,-1,-1,-1,-1,-1,-1,-1,-1,-1,-1,-1,-1,-1,-1,-1,-1,-1,-1,-1,-1,-1,-1,-1,-1,-1,-1,-1,-1,-1,-1,-1,-1,-1,-1,-1,-1,-1,-1,-1,-1,-1,-1,-1,-1,-1,-1,-1,-1,-1,-1,-1,-1,-1],"split_conditions":[8.503995E1,1.6320093E1,1.6720741E1,7.897965E1,8.017139E1,9.0514175E1,9.5436615E1,7.159216E1,1.6383078E1,3.32E1,1.6611996E1,1.61502E1,5E0,1.7038155E1,1.7305227E1,1.6393469E1,1.6062975E1,1.5941555E1,1.7068558E1,7.171049E1,3.665462E-2,4.16E2,1.719624E1,3E0,7.5E-1,1.6889107E1,6E0,1.6563221E1,1.5978864E1,1.6633528E1,9.8400345E1,1.6166756E1,-1.8671203E-2,4.7791233E0,1.6021807E1,2.04E1,1.61502E1,8.2661064E1,1.9455496E-2,1.6597708E1,1.6451853E1,3E0,1.6925396E1,1.6724195E1,4.919981E0,1.6200298E1,5.420535E0,1.6230906E1,1.6661013E1,1.6831753E1,5.529429E0,9E0,4.4879988E-2,8.719262E1,1.6954157E1,2.6571428E1,2.96E2,1.3E1,5E0,1.680538E1,4.38E2,-3.583026E-2,-2.6292985E-2,-3.7807804E-2,-2.6850881E-2,-3.180661E-2,-1.8365016E-2,-5.143032E-3,-1.8718382E-2,-1.9412337E-2,-8.520466E-3,-5.549335E-3,3.2239468E-3,-1.8502947E-2,6.916594E-4,-8.679842E-3,-3.106734E-4,1.809952E-2,4.482753E-3,3.863613E-4,1.4239262E-2,9.437195E-3,2.8235443E-2,1.7241757E-2,2.8577702E-2,-1.7153775E-2,-1.1122759E-2,-7.209766E-3,4.6969745E-3,8.51028E-3,1.7395891E-2,2.9882197E-3,1.8885849E-2,1.1946367E-2,3.6176335E-2,2.287228E-2,4.191675E-2,3.1870786E-2,1.3962696E-2,1.0219116E-2,2.0135479E-2,2.4104431E-2,3.632386E-2,-1.5001008E-3,1.1253495E-2,5.0348658E-2,3.20698E-2,2.6756616E-2,3.7758254E-2,4.0156133E-2,4.907048E-2,3.98821E-2,5.6002308E-2,5.697506E-2,4.8977073E-2],"split_indices":[11,7,7,11,11,11,11,11,8,5,8,8,3,7,7,8,8,7,8,11,0,9,8,10,4,8,3,8,8,8,11,7,0,1,6,5,8,11,0,7,8,3,7,7,1,6,1,6,6,6,1,10,0,11,8,5,9,10,2,8,9,0,0,0,0,0,0,0,0,0,0,0,0,0,0,0,0,0,0,0,0,0,0,0,0,0,0,0,0,0,0,0,0,0,0,0,0,0,0,0,0,0,0,0,0,0,0,0,0,0,0,0,0,0,0],"split_type":[0,0,0,0,0,0,0,0,0,0,0,0,0,0,0,0,0,0,0,0,0,0,0,0,0,0,0,0,0,0,0,0,0,0,0,0,0,0,0,0,0,0,0,0,0,0,0,0,0,0,0,0,0,0,0,0,0,0,0,0,0,0,0,0,0,0,0,0,0,0,0,0,0,0,0,0,0,0,0,0,0,0,0,0,0,0,0,0,0,0,0,0,0,0,0,0,0,0,0,0,0,0,0,0,0,0,0,0,0,0,0,0,0,0,0],"sum_hessian":[9.599E3,5.816E3,3.783E3,3.691E3,2.125E3,2.018E3,1.765E3,1.68E3,2.011E3,1.188E3,9.37E2,1.497E3,5.21E2,1.259E3,5.06E2,4.42E2,1.238E3,1.705E3,3.06E2,1.175E3,1.3E1,7.57E2,1.8E2,1.46E2,1.351E3,4.59E2,6.2E1,7.53E2,5.06E2,2.54E2,2.52E2,3.98E2,4.4E1,9.2E1,1.146E3,6.78E2,1.027E3,2.83E2,2.3E1,2.23E2,9.52E2,1.95E2,5.62E2,1.42E2,3.8E1,1.04E2,4.2E1,3.34E2,1.017E3,4.34E2,2.5E1,5.1E1,1.1E1,5.29E2,2.24E2,3.7E1,4.69E2,1.67E2,8.7E1,9.3E1,1.59E2,2.98E2,1E2,6.4E1,2.8E1,1.35E2,1.011E3,3.1E1,6.47E2,1.22E2,9.05E2,1.76E2,1.07E2,2.06E2,1.7E1,6.45E2,3.07E2,8.7E1,1.08E2,5.25E2,3.7E1,1.31E2,1.1E1,1.1E1,2.7E1,3.4E1,7E1,2.5E1,1.7E1,1.36E2,1.98E2,9.25E2,9.2E1,4.2E2,1.4E1,1.2E1,1.3E1,3E1,2.1E1,1.32E2,3.97E2,1.85E2,3.9E1,1.6E1,2.1E1,3.5E1,4.34E2,6.2E1,1.05E2,5.9E1,2.8E1,7.5E1,1.8E1,4.1E1,1.18E2],"tree_param":{"num_deleted":"0","num_feature":"13","num_nodes":"115","size_leaf_vector":"1"}},{"base_weights":[-1.956229E-3,-2.1300875E-1,3.0321422E-1,-3.0845574E-1,-4.1131824E-2,1.7988962E-1,5.835627E-1,-4.4879258E-1,-2.2462943E-1,-2.0432086E-1,4.1260872E-2,1.9773694E-2,2.50689E-1,4.9097294E-1,7.754695E-1,-5.765911E-1,-4.011311E-1,-2.5704032E-1,-2.751597E-2,-2.2854613E-1,2.341239E-2,-3.5417814E-2,1.1875514E-1,-4.7635688E-3,5.344934E-1,2.0727372E-1,3.6774567E-1,3.181573E-1,5.536111E-1,5.8375555E-1,8.0632776E-1,-6.0744315E-1,-1.9159049E-2,-4.2480952E-1,-1.5270573E-1,-3.396367E-1,-1.9435772E-1,-5.578668E-2,3.3399463E-1,-2.7439556E-1,-1.0969044E-1,-1.11710176E-1,2.1644895E-1,-8.793552E-2,1.0547276E-1,7.116385E-2,2.4558422E-1,-2.1191734E-1,3.3264704E-2,3.7380913E-1,4.4373374E-2,1.574534E-1,2.956581E-1,4.6531612E-1,2.5460684E-1,1.8122038E-1,3.8415402E-1,5.3125465E-1,8.196475E-1,4.8360246E-1,3.785881E-2,7.788792E-1,5.206726E-2,-4.4393335E-2,-3.1314548E-2,-3.3886723E-2,-2.1799838E-2,-1.975256E-2,-4.181236E-3,-2.104771E-2,-1.5690455E-2,-2.5358226E-2,-9.76763E-3,-4.200843E-3,1.1789047E-2,1.23158805E-2,2.3315733E-2,-1.9297443E-2,-1.2397942E-2,-8.6277705E-3,1.4491772E-3,-1.2513884E-2,9.931287E-4,2.1032263E-2,9.670523E-4,-5.8032745E-3,1.2118671E-2,4.0821936E-3,2.2872157E-2,6.7323525E-3,-3.2732903E-3,-0E0,1.6609322E-2,-1.4602481E-2,-7.2993356E-4,1.2159933E-3,3.0085152E-2,2.4374885E-2,1.3858588E-2,1.5151864E-2,5.008944E-3,2.4786752E-2,1.4183324E-2,2.2977548E-2,3.581538E-2,2.710873E-3,1.6178425E-2,1.2195149E-2,-3.0733435E-3,1.9062134E-2,3.141228E-2,7.2162654E-3,2.9309288E-2,3.1457398E-2,4.9398847E-2,1.8994574E-2,2.9385686E-2,3.742372E-2,4.5664765E-2],"categories":[],"categories_nodes":[],"categories_segments":[],"categories_sizes":[],"default_left":[0,0,0,0,0,0,0,0,0,0,0,0,0,0,0,0,0,0,0,0,0,0,0,0,0,0,0,0,0,0,0,0,0,0,0,0,0,0,0,0,0,0,0,0,0,0,0,0,0,0,0,0,0,0,0,0,0,0,0,0,0,0,0,0,0,0,0,0,0,0,0,0,0,0,0,0,0,0,0,0,0,0,0,0,0,0,0,0,0,0,0,0,0,0,0,0,0,0,0,0,0,0,0,0,0,0,0,0,0,0,0,0,0,0,0,0,0,0,0],"id":9,"left_children":[1,3,5,7,9,11,13,15,17,19,21,23,25,27,29,31,33,35,37,39,41,43,45,47,49,51,53,55,57,59,61,63,-1,65,67,69,71,73,75,77,79,81,83,85,87,89,91,93,95,97,-1,99,101,103,105,107,109,111,113,115,-1,117,-1,-1,-1,-1,-1,-1,-1,-1,-1,-1,-1,-1,-1,-1,-1,-1,-1,-1,-1,-1,-1,-1,-1,-1,-1,-1,-1,-1,-1,-1,-1,-1,-1,-1,-1,-1,-1,-1,-1,-1,-1,-1,-1,-1,-1,-1,-1,-1,-1,-1,-1,-1,-1,-1,-1,-1,-1],"loss_changes":[6.180705E2,9.30336E1,1.3554367E2,4.281778E1,2.7261457E1,3.0866371E1,2.1081543E1,8.156372E0,1.4564117E1,3.7737007E0,8.008489E0,1.0612904E1,9.528374E0,8.635498E0,2.06073E0,2.3713226E0,5.7779694E0,1.0087494E1,3.2810323E0,3.3088417E0,1.7170706E0,5.0040483E0,4.011031E0,6.3070035E0,1.5945578E0,6.018978E0,5.5359955E0,1.8838139E0,3.2982635E0,4.6907043E-1,1.135437E0,1.5587463E0,0E0,3.522934E0,1.3529377E0,1.9990387E0,3.9017944E0,1.82653E0,1.5589952E-1,1.5673027E0,1.204215E0,6.225014E-1,9.010773E-1,3.063499E0,1.6790419E0,3.4814012E0,2.8369303E0,1.4346128E0,3.724308E0,1.368835E-1,0E0,7.012869E0,2.5332565E0,1.9311485E0,2.1892748E0,7.8887486E-1,7.3184013E-1,2.8019867E0,7.7565E-1,1.237092E-1,0E0,1.3846283E0,0E0,0E0,0E0,0E0,0E0,0E0,0E0,0E0,0E0,0E0,0E0,0E0,0E0,0E0,0E0,0E0,0E0,0E0,0E0,0E0,0E0,0E0,0E0,0E0,0E0,0E0,0E0,0E0,0E0,0E0,0E0,0E0,0E0,0E0,0E0,0E0,0E0,0E0,0E0,0E0,0E0,0E0,0E0,0E0,0E0,0E0,0E0,0E0,0E0,0E0,0E0,0E0,0E0,0E0,0E0,0E0,0E0],"parents":[2147483647,0,0,1,1,2,2,3,3,4,4,5,5,6,6,7,7,8,8,9,9,10,10,11,11,12,12,13,13,14,14,15,15,16,16,17,17,18,18,19,19,20,20,21,21,22,22,23,23,24,24,25,25,26,26,27,27,28,28,29,29,30,30,31,31,33,33,34,34,35,35,36,36,37,37,38,38,39,39,40,40,41,41,42,42,43,43,44,44,45,45,46,46,47,47,48,48,49,49,51,51,52,52,53,53,54,54,55,55,56,56,57,57,58,58,59,59,61,61],"right_children":[2,4,6,8,10,12,14,16,18,20,22,24,26,28,30,32,34,36,38,40,42,44,46,48,50,52,54,56,58,60,62,64,-1,66,68,70,72,74,76,78,80,82,84,86,88,90,92,94,96,98,-1,100,102,104,106,108,110,112,114,116,-1,118,-1,-1,-1,-1,-1,-1,-1,-1,-1,-1,-1,-1,-1,-1,-1,-1,-1,-1,-1,-1,-1,-1,-1,-1,-1,-1,-1,-1,-1,-1,-1,-1,-1,-1,-1,-1,-1,-1,-1,-1,-1,-1,-1,-1,-1,-1,-1,-1,-1,-1,-1,-1,-1,-1,-1,-1,-1],"split_conditions":[8.465865E1,1.6320093E1,1.6864883E1,7.794536E1,7.694439E1,1.6319662E1,9.659083E1,7.1186584E1,1.6383078E1,1.6544008E1,8.107453E1,9.2718544E1,9.152131E1,8.824867E1,1.3E1,1.6393469E1,1.6451916E1,1.591845E1,1.7068558E1,1.6454697E1,7.6E1,1.6477983E1,1.6609308E1,1.6094017E1,9.461314E1,1.6665642E1,7.41E2,1.634358E1,1.758909E1,1.6715971E1,1.680538E1,1.5793417E1,-1.9159049E-2,1.6016815E1,9E1,1.6094017E1,1.6016815E1,1.74E2,1.4E2,7.171049E1,7.5869064E1,1.6383078E1,7.537431E1,1.6724195E1,1.7130419E1,1.6541435E1,1.651572E1,2.51E2,1.7068558E1,2.9E2,4.4373374E-2,3E0,3.49E2,1.6703186E1,1.634358E1,8.791279E1,1.689053E1,1.5958301E1,2.39E2,9.79622E1,3.785881E-2,1.7363455E1,5.206726E-2,-4.4393335E-2,-3.1314548E-2,-3.3886723E-2,-2.1799838E-2,-1.975256E-2,-4.181236E-3,-2.104771E-2,-1.5690455E-2,-2.5358226E-2,-9.76763E-3,-4.200843E-3,1.1789047E-2,1.23158805E-2,2.3315733E-2,-1.9297443E-2,-1.2397942E-2,-8.6277705E-3,1.4491772E-3,-1.2513884E-2,9.931287E-4,2.1032263E-2,9.670523E-4,-5.8032745E-3,1.2118671E-2,4.0821936E-3,2.2872157E-2,6.7323525E-3,-3.2732903E-3,-0E0,1.6609322E-2,-1.4602481E-2,-7.2993356E-4,1.2159933E-3,3.0085152E-2,2.4374885E-2,1.3858588E-2,1.5151864E-2,5.008944E-3,2.4786752E-2,1.4183324E-2,2.2977548E-2,3.581538E-2,2.710873E-3,1.6178425E-2,1.2195149E-2,-3.0733435E-3,1.9062134E-2,3.141228E-2,7.2162654E-3,2.9309288E-2,3.1457398E-2,4.9398847E-2,1.8994574E-2,2.9385686E-2,3.742372E-2,4.5664765E-2],"split_indices":[11,7,7,11,11,7,11,11,8,7,11,11,11,11,10,8,8,7,8,8,0,8,6,6,11,7,9,8,7,8,8,7,0,8,0,6,8,0,0,11,11,8,11,7,8,6,7,0,8,0,0,10,9,8,8,11,8,8,0,11,0,7,0,0,0,0,0,0,0,0,0,0,0,0,0,0,0,0,0,0,0,0,0,0,0,0,0,0,0,0,0,0,0,0,0,0,0,0,0,0,0,0,0,0,0,0,0,0,0,0,0,0,0,0,0,0,0,0,0],"split_type":[0,0,0,0,0,0,0,0,0,0,0,0,0,0,0,0,0,0,0,0,0,0,0,0,0,0,0,0,0,0,0,0,0,0,0,0,0,0,0,0,0,0,0,0,0,0,0,0,0,0,0,0,0,0,0,0,0,0,0,0,0,0,0,0,0,0,0,0,0,0,0,0,0,0,0,0,0,0,0,0,0,0,0,0,0,0,0,0,0,0,0,0,0,0,0,0,0,0,0,0,0,0,0,0,0,0,0,0,0,0,0,0,0,0,0,0,0,0,0],"sum_hessian":[9.596E3,5.673E3,3.923E3,3.647E3,2.026E3,2.725E3,1.198E3,1.363E3,2.284E3,6.8E2,1.346E3,8.36E2,1.889E3,8.09E2,3.89E2,3.69E2,9.94E2,1.961E3,3.23E2,6.15E2,6.5E1,6.76E2,6.7E2,7.98E2,3.8E1,1.379E3,5.1E2,2.16E2,5.93E2,5.5E1,3.34E2,3.23E2,4.6E1,9.07E2,8.7E1,8.45E2,1.116E3,3E2,2.3E1,4.43E2,1.72E2,3.8E1,2.7E1,4.93E2,1.83E2,4.88E2,1.82E2,1.24E2,6.74E2,2.5E1,1.3E1,8.83E2,4.96E2,2.73E2,2.37E2,7.1E1,1.45E2,5.48E2,4.5E1,3.1E1,2.4E1,2.87E2,4.7E1,3.3E1,2.9E2,7.9E1,8.28E2,2.2E1,6.5E1,4.07E2,4.38E2,4.9E1,1.067E3,2.78E2,2.2E1,1.2E1,1.1E1,1.51E2,2.92E2,1.26E2,4.6E1,2E1,1.8E1,1.4E1,1.3E1,4.64E2,2.9E1,1.68E2,1.5E1,3.47E2,1.41E2,3.7E1,1.45E2,9.5E1,2.9E1,6.61E2,1.3E1,1.4E1,1.1E1,3.01E2,5.82E2,8E1,4.16E2,2.3E2,4.3E1,4.4E1,1.93E2,6E1,1.1E1,1.27E2,1.8E1,1.8E1,5.3E2,1.4E1,3.1E1,1.1E1,2E1,1.32E2,1.55E2],"tree_param":{"num_deleted":"0","num_feature":"13","num_nodes":"119","size_leaf_vector":"1"}},{"base_weights":[5.0228736E-3,-1.6769151E-1,3.4214365E-1,-2.7320763E-1,-1.5935653E-3,2.1651609E-1,6.086174E-1,-4.7658396E-1,-2.1239567E-1,-1.5086274E-1,8.0098875E-2,1.4181535E-1,3.4681377E-1,4.8237997E-1,7.113605E-1,-3.8911045E-2,-4.5791996E-1,-3.8690934E-1,-1.7882617E-1,-1.832352E-1,2.564643E-2,4.8483234E-2,2.2628418E-1,7.728109E-2,2.4749881E-1,3.1538424E-1,6.0728556E-1,1.7342934E-3,5.096302E-1,6.00624E-1,7.9723454E-1,-4.6701926E-1,-4.4477824E-3,-5.878038E-1,-3.4272203E-1,-2.6449904E-1,-1.1934202E-1,-2.6929292E-1,-1.4946781E-1,-2.3455858E-2,1.4839034E-1,-1.9461136E-2,1.2138226E-1,9.4447635E-2,3.1972286E-1,3.7358377E-2,2.9688925E-1,2.1941537E-1,4.9284828E-1,2.9945993E-1,3.443031E-2,5.201871E-1,4.420584E-2,3.185073E-1,5.488294E-1,5.594078E-1,7.618968E-1,5.533318E-1,8.310105E-1,-2.7668724E-2,-2.1485869E-2,-3.4233302E-2,-2.6890818E-2,-2.0779079E-2,-1.3823981E-2,-2.6665784E-2,-1.33594E-2,-1.5756968E-2,-4.650898E-3,-1.6227357E-2,-3.9452358E-4,-2.4354797E-4,-9.794324E-3,-7.959508E-3,1.5765143E-3,1.7547177E-2,3.936314E-3,-1.0292314E-2,2.3469349E-4,-1.34731205E-2,7.300139E-3,1.0280292E-2,-2.5213258E-2,1.4801173E-2,2.3225049E-2,3.0009361E-2,1.2973864E-3,2.6972706E-3,1.9271696E-2,1.7525569E-2,8.917518E-3,1.9377658E-2,3.7191242E-2,2.3139425E-2,1.449375E-2,3.3650268E-2,2.3859872E-2,1.4002625E-2,3.147152E-2,2.8367892E-2,4.905123E-2,2.5224376E-2,3.3633582E-2,4.794102E-2,3.7600774E-2,1.8320076E-2,3.5545837E-2,4.3208107E-2,5.280467E-2],"categories":[],"categories_nodes":[],"categories_segments":[],"categories_sizes":[],"default_left":[0,0,0,0,0,0,0,0,0,0,0,0,0,0,0,0,0,0,0,0,0,0,0,0,0,0,0,0,0,0,0,0,0,0,0,0,0,0,0,0,0,0,0,0,0,0,0,0,0,0,0,0,0,0,0,0,0,0,0,0,0,0,0,0,0,0,0,0,0,0,0,0,0,0,0,0,0,0,0,0,0,0,0,0,0,0,0,0,0,0,0,0,0,0,0,0,0,0,0,0,0,0,0,0,0,0,0,0,0],"id":10,"left_children":[1,3,5,7,9,11,13,15,17,19,21,23,25,27,29,-1,31,33,35,37,39,41,43,45,47,49,51,-1,53,55,57,59,-1,61,63,65,67,69,71,73,75,77,79,81,83,85,87,89,91,93,-1,95,-1,97,99,101,103,105,107,-1,-1,-1,-1,-1,-1,-1,-1,-1,-1,-1,-1,-1,-1,-1,-1,-1,-1,-1,-1,-1,-1,-1,-1,-1,-1,-1,-1,-1,-1,-1,-1,-1,-1,-1,-1,-1,-1,-1,-1,-1,-1,-1,-1,-1,-1,-1,-1,-1,-1],"loss_changes":[5.5982446E2,1.1139043E2,1.0893082E2,4.7986664E1,3.0131971E1,2.1493568E1,1.3337036E1,3.9209595E0,1.7465073E1,5.0116024E0,7.348444E0,9.568817E0,6.4674683E0,5.7001953E0,5.216034E0,0E0,2.7802887E0,4.144966E0,1.2753517E1,2.0986652E0,8.2783663E-1,6.514867E0,3.4422712E0,7.638791E0,3.5807648E0,3.5845718E0,1.3796864E0,0E0,3.18956E0,1.4515076E0,2.4156647E0,2.4557037E0,0E0,1.8426514E-1,1.3894386E0,3.7729034E0,8.428745E0,1.7164497E0,2.4881363E0,6.438559E-1,4.8053664E-1,2.79701E0,3.353033E0,6.418084E0,7.3108864E-1,5.051836E0,1.9817629E0,2.675087E0,1.2688904E0,2.6128654E0,0E0,3.359928E-1,0E0,1.0681372E0,2.6473694E0,1.0288773E0,1.13788605E-1,7.691841E-1,8.453522E-1,0E0,0E0,0E0,0E0,0E0,0E0,0E0,0E0,0E0,0E0,0E0,0E0,0E0,0E0,0E0,0E0,0E0,0E0,0E0,0E0,0E0,0E0,0E0,0E0,0E0,0E0,0E0,0E0,0E0,0E0,0E0,0E0,0E0,0E0,0E0,0E0,0E0,0E0,0E0,0E0,0E0,0E0,0E0,0E0,0E0,0E0,0E0,0E0,0E0,0E0],"parents":[2147483647,0,0,1,1,2,2,3,3,4,4,5,5,6,6,7,7,8,8,9,9,10,10,11,11,12,12,13,13,14,14,16,16,17,17,18,18,19,19,20,20,21,21,22,22,23,23,24,24,25,25,26,26,28,28,29,29,30,30,31,31,33,33,34,34,35,35,36,36,37,37,38,38,39,39,40,40,41,41,42,42,43,43,44,44,45,45,46,46,47,47,48,48,49,49,51,51,53,53,54,54,55,55,56,56,57,57,58,58],"right_children":[2,4,6,8,10,12,14,16,18,20,22,24,26,28,30,-1,32,34,36,38,40,42,44,46,48,50,52,-1,54,56,58,60,-1,62,64,66,68,70,72,74,76,78,80,82,84,86,88,90,92,94,-1,96,-1,98,100,102,104,106,108,-1,-1,-1,-1,-1,-1,-1,-1,-1,-1,-1,-1,-1,-1,-1,-1,-1,-1,-1,-1,-1,-1,-1,-1,-1,-1,-1,-1,-1,-1,-1,-1,-1,-1,-1,-1,-1,-1,-1,-1,-1,-1,-1,-1,-1,-1,-1,-1,-1,-1],"split_conditions":[8.616169E1,1.6319662E1,1.6904953E1,7.56629E1,7.794536E1,1.6622139E1,9.3711006E1,1.6079885E1,1.6021807E1,1.6611996E1,1.6611996E1,1.6459791E1,9.5436615E1,1.5978864E1,1.7305227E1,-3.8911045E-2,3E0,1.36E2,8.022376E1,7.8E1,1.6388268E1,1.6520727E1,1.6353725E1,9.242284E1,1.6840672E1,1.7068558E1,1.3E1,1.7342934E-3,8.7436195E1,1.6609308E1,4E0,1.6290813E1,-4.4477824E-3,1.3E2,1.81E2,1.6079885E1,1.6182137E1,1.6597708E1,3.49E2,9.3E1,1.6541435E1,1.6303795E1,1.5958301E1,1.6322422E1,1.719624E1,3E0,1.6021807E1,1.6550621E1,1E0,3.49E2,3.443031E-2,3.4E2,4.420584E-2,1.689053E1,1.6796438E1,3.53E2,1.31E2,3.19E2,1.6715971E1,-2.7668724E-2,-2.1485869E-2,-3.4233302E-2,-2.6890818E-2,-2.0779079E-2,-1.3823981E-2,-2.6665784E-2,-1.33594E-2,-1.5756968E-2,-4.650898E-3,-1.6227357E-2,-3.9452358E-4,-2.4354797E-4,-9.794324E-3,-7.959508E-3,1.5765143E-3,1.7547177E-2,3.936314E-3,-1.0292314E-2,2.3469349E-4,-1.34731205E-2,7.300139E-3,1.0280292E-2,-2.5213258E-2,1.4801173E-2,2.3225049E-2,3.0009361E-2,1.2973864E-3,2.6972706E-3,1.9271696E-2,1.7525569E-2,8.917518E-3,1.9377658E-2,3.7191242E-2,2.3139425E-2,1.449375E-2,3.3650268E-2,2.3859872E-2,1.4002625E-2,3.147152E-2,2.8367892E-2,4.905123E-2,2.5224376E-2,3.3633582E-2,4.794102E-2,3.7600774E-2,1.8320076E-2,3.5545837E-2,4.3208107E-2,5.280467E-2],"split_indices":[11,7,7,11,11,7,11,8,6,8,8,6,11,8,7,0,3,0,11,0,7,7,7,11,8,8,10,0,11,6,2,6,0,0,0,8,8,7,9,0,6,8,8,7,8,2,6,6,10,9,0,0,0,8,6,0,9,0,8,0,0,0,0,0,0,0,0,0,0,0,0,0,0,0,0,0,0,0,0,0,0,0,0,0,0,0,0,0,0,0,0,0,0,0,0,0,0,0,0,0,0,0,0,0,0,0,0,0,0],"split_type":[0,0,0,0,0,0,0,0,0,0,0,0,0,0,0,0,0,0,0,0,0,0,0,0,0,0,0,0,0,0,0,0,0,0,0,0,0,0,0,0,0,0,0,0,0,0,0,0,0,0,0,0,0,0,0,0,0,0,0,0,0,0,0,0,0,0,0,0,0,0,0,0,0,0,0,0,0,0,0,0,0,0,0,0,0,0,0,0,0,0,0,0,0,0,0,0,0,0,0,0,0,0,0,0,0,0,0,0,0],"sum_hessian":[9.614E3,6.357E3,3.257E3,3.887E3,2.47E3,2.214E3,1.043E3,8.94E2,2.993E3,8.74E2,1.596E3,1.408E3,8.06E2,4.69E2,5.74E2,6.2E1,8.32E2,4.82E2,2.511E3,7.39E2,1.35E2,1.313E3,2.83E2,8.75E2,5.33E2,7.2E2,8.6E1,2.7E1,4.42E2,2.52E2,3.22E2,8.12E2,2E1,8.6E1,3.96E2,1.028E3,1.483E3,2.07E2,5.32E2,9.6E1,3.9E1,6.79E2,6.34E2,1.18E2,1.65E2,7.41E2,1.34E2,4.79E2,5.4E1,6.87E2,3.3E1,6.2E1,2.4E1,7.6E1,3.66E2,2.02E2,5E1,4E1,2.82E2,4.78E2,3.34E2,5.4E1,3.2E1,2.62E2,1.34E2,6.7E1,9.61E2,2.36E2,1.247E3,1.84E2,2.3E1,9.8E1,4.34E2,2.9E1,6.7E1,1.1E1,2.8E1,8.3E1,5.96E2,2.3E1,6.11E2,1.01E2,1.7E1,1.19E2,4.6E1,1.8E1,7.23E2,2.7E1,1.07E2,1.6E2,3.19E2,3.3E1,2.1E1,1.28E2,5.59E2,2.5E1,3.7E1,6.3E1,1.3E1,3.46E2,2E1,8.6E1,1.16E2,1.5E1,3.5E1,1.4E1,2.6E1,2.39E2,4.3E1],"tree_param":{"num_deleted":"0","num_feature":"13","num_nodes":"109","size_leaf_vector":"1"}},{"base_weights":[8.4334443E-4,-1.9474187E-1,2.6959443E-1,-2.8105563E-1,-4.0560134E-2,1.5467197E-1,5.343284E-1,-4.3362597E-1,-2.2254412E-1,-1.3999808E-1,6.262129E-2,5.3192224E-2,2.4272335E-1,2.9814926E-1,5.8459866E-1,-4.9162534E-1,-3.61346E-1,-2.5218892E-1,-4.2268302E-2,-1.7549248E-1,1.4324644E-2,2.6534189E-2,2.212769E-1,2.1825227E-1,1.1052897E-2,2.018523E-1,3.424404E-1,2.7117738E-1,3.6160197E-2,5.111746E-1,6.8095285E-1,-6.306369E-1,-4.6427822E-1,-3.7952724E-1,-1.23242915E-1,-3.7938607E-1,-2.2332E-1,-6.195085E-2,1.5679734E-2,-4.7880447E-1,-1.6468927E-1,-2.7817702E-2,3.3930993E-1,-3.1149892E-2,1.05105646E-1,-6.1540003E-3,2.6146308E-1,-2.9351506E-1,2.6691797E-1,-6.889795E-3,3.2502234E-1,1.9322532E-1,5.4314744E-1,3.117506E-1,5.454278E-1,2.9581523E-1,1.4479011E-3,4.8791528E-1,7.624485E-1,5.844688E-1,7.538743E-1,-3.8995825E-2,-3.0875012E-2,-3.5322156E-2,-2.4005411E-2,-2.3147073E-2,-1.6302718E-2,-0E0,-1.136351E-2,-2.4693655E-2,-1.5995838E-2,-2.0129735E-2,-1.0938109E-2,-7.670869E-3,1.0352601E-4,-2.9957762E-2,-1.9311674E-2,-1.4098491E-2,-7.279269E-3,-2.0277342E-2,1.0161848E-3,5.050317E-3,3.0643448E-2,4.088197E-3,-4.4027506E-3,2.6920638E-3,1.8604515E-2,-2.3313021E-2,1.5256734E-2,5.6386474E-3,1.5064642E-2,-9.811078E-3,-2.0577662E-2,1.8619098E-2,7.6865703E-3,-9.445687E-3,1.2848917E-3,2.7556796E-2,4.277663E-3,8.0649275E-3,1.3668507E-2,2.250818E-2,3.7301406E-2,1.4929218E-2,2.554168E-2,2.2877032E-2,3.5648476E-2,1.1293722E-2,1.8207781E-2,2.5201617E-2,4.475747E-2,3.2154E-2,5.0063808E-2,2.8949562E-2,4.1135497E-2,3.8660593E-2,4.9606923E-2],"categories":[],"categories_nodes":[],"categories_segments":[],"categories_sizes":[],"default_left":[0,0,0,0,0,0,0,0,0,0,0,0,0,0,0,0,0,0,0,0,0,0,0,0,0,0,0,0,0,0,0,0,0,0,0,0,0,0,0,0,0,0,0,0,0,0,0,0,0,0,0,0,0,0,0,0,0,0,0,0,0,0,0,0,0,0,0,0,0,0,0,0,0,0,0,0,0,0,0,0,0,0,0,0,0,0,0,0,0,0,0,0,0,0,0,0,0,0,0,0,0,0,0,0,0,0,0,0,0,0,0,0,0,0,0,0,0],"id":11,"left_children":[1,3,5,7,9,11,13,15,17,19,21,23,25,27,29,31,33,35,37,39,41,43,45,47,49,51,53,55,-1,57,59,61,63,65,67,69,71,73,-1,75,77,79,81,83,85,87,89,91,93,95,97,99,101,103,105,107,-1,109,111,113,115,-1,-1,-1,-1,-1,-1,-1,-1,-1,-1,-1,-1,-1,-1,-1,-1,-1,-1,-1,-1,-1,-1,-1,-1,-1,-1,-1,-1,-1,-1,-1,-1,-1,-1,-1,-1,-1,-1,-1,-1,-1,-1,-1,-1,-1,-1,-1,-1,-1,-1,-1,-1,-1,-1,-1,-1],"loss_changes":[5.0853305E2,7.448108E1,1.2389908E2,3.1956207E1,2.0634714E1,2.5365143E1,1.4516937E1,4.0451508E0,1.3838806E1,5.626377E0,5.6214266E0,9.16726E0,6.131645E0,2.0565681E0,6.9948425E0,1.9191284E0,1.8640137E0,8.104721E0,2.3931184E0,2.6503067E0,2.651117E0,3.6528893E0,1.6904039E0,6.695903E0,5.964403E0,3.0856628E0,2.627205E0,1.1903114E0,0E0,3.1736603E0,2.8532562E0,2.5719452E-1,1.4478226E0,1.4952354E0,3.6748734E-1,2.5794487E0,5.4336853E0,1.8002263E0,0E0,1.2953377E-1,2.2599335E0,2.7930639E0,1.1790295E0,2.5144744E0,4.479734E0,3.409389E0,4.0398026E-1,1.5913391E-1,2.3457165E0,5.1818066E0,2.5606146E0,2.7297287E0,3.1777096E-1,2.0486946E0,6.359825E-1,6.035023E-1,0E0,3.3793106E0,1.0600758E0,1.3753662E0,1.1741486E0,0E0,0E0,0E0,0E0,0E0,0E0,0E0,0E0,0E0,0E0,0E0,0E0,0E0,0E0,0E0,0E0,0E0,0E0,0E0,0E0,0E0,0E0,0E0,0E0,0E0,0E0,0E0,0E0,0E0,0E0,0E0,0E0,0E0,0E0,0E0,0E0,0E0,0E0,0E0,0E0,0E0,0E0,0E0,0E0,0E0,0E0,0E0,0E0,0E0,0E0,0E0,0E0,0E0,0E0,0E0,0E0],"parents":[2147483647,0,0,1,1,2,2,3,3,4,4,5,5,6,6,7,7,8,8,9,9,10,10,11,11,12,12,13,13,14,14,15,15,16,16,17,17,18,18,19,19,20,20,21,21,22,22,23,23,24,24,25,25,26,26,27,27,29,29,30,30,31,31,32,32,33,33,34,34,35,35,36,36,37,37,39,39,40,40,41,41,42,42,43,43,44,44,45,45,46,46,47,47,48,48,49,49,50,50,51,51,52,52,53,53,54,54,55,55,57,57,58,58,59,59,60,60],"right_children":[2,4,6,8,10,12,14,16,18,20,22,24,26,28,30,32,34,36,38,40,42,44,46,48,50,52,54,56,-1,58,60,62,64,66,68,70,72,74,-1,76,78,80,82,84,86,88,90,92,94,96,98,100,102,104,106,108,-1,110,112,114,116,-1,-1,-1,-1,-1,-1,-1,-1,-1,-1,-1,-1,-1,-1,-1,-1,-1,-1,-1,-1,-1,-1,-1,-1,-1,-1,-1,-1,-1,-1,-1,-1,-1,-1,-1,-1,-1,-1,-1,-1,-1,-1,-1,-1,-1,-1,-1,-1,-1,-1,-1,-1,-1,-1,-1,-1],"split_conditions":[8.447575E1,1.6320093E1,1.6864883E1,7.61611E1,7.9043755E1,1.6484549E1,8.824867E1,7.245169E1,1.6383078E1,1.6611996E1,1.6611996E1,7.5E-1,9.152131E1,1.6954157E1,9.573778E1,6E1,1.6451916E1,1.6021807E1,1.7068558E1,1.5978864E1,1.7130419E1,1.6520727E1,1E0,1.613626E1,9.2718544E1,1.719624E1,1.6732327E1,2.12E2,3.6160197E-2,1.758909E1,1.7305227E1,1.5871241E1,1.6079885E1,1.5999961E1,2E0,1.56E2,1.6081074E1,8.006154E1,1.5679734E-2,7.633147E1,7.171049E1,1E0,9.1E1,1.6322422E1,2.5333334E1,1.6329426E1,1.6459791E1,1.93E2,3E0,1.6021807E1,1.6326187E1,1.6682806E1,1.97E2,1.3E1,2.71E2,1.634358E1,1.4479011E-3,1.6796438E1,2.53E2,1.6609308E1,1.6715971E1,-3.8995825E-2,-3.0875012E-2,-3.5322156E-2,-2.4005411E-2,-2.3147073E-2,-1.6302718E-2,-0E0,-1.136351E-2,-2.4693655E-2,-1.5995838E-2,-2.0129735E-2,-1.0938109E-2,-7.670869E-3,1.0352601E-4,-2.9957762E-2,-1.9311674E-2,-1.4098491E-2,-7.279269E-3,-2.0277342E-2,1.0161848E-3,5.050317E-3,3.0643448E-2,4.088197E-3,-4.4027506E-3,2.6920638E-3,1.8604515E-2,-2.3313021E-2,1.5256734E-2,5.6386474E-3,1.5064642E-2,-9.811078E-3,-2.0577662E-2,1.8619098E-2,7.6865703E-3,-9.445687E-3,1.2848917E-3,2.7556796E-2,4.277663E-3,8.0649275E-3,1.3668507E-2,2.250818E-2,3.7301406E-2,1.4929218E-2,2.554168E-2,2.2877032E-2,3.5648476E-2,1.1293722E-2,1.8207781E-2,2.5201617E-2,4.475747E-2,3.2154E-2,5.0063808E-2,2.8949562E-2,4.1135497E-2,3.8660593E-2,4.9606923E-2],"split_indices":[11,7,7,11,11,7,11,11,8,8,8,4,11,8,11,0,8,6,8,8,8,7,10,8,11,8,8,0,0,7,7,7,8,7,3,0,8,11,0,11,11,10,0,7,5,7,6,0,10,6,7,7,0,10,0,8,0,6,0,6,8,0,0,0,0,0,0,0,0,0,0,0,0,0,0,0,0,0,0,0,0,0,0,0,0,0,0,0,0,0,0,0,0,0,0,0,0,0,0,0,0,0,0,0,0,0,0,0,0,0,0,0,0,0,0,0,0],"split_type":[0,0,0,0,0,0,0,0,0,0,0,0,0,0,0,0,0,0,0,0,0,0,0,0,0,0,0,0,0,0,0,0,0,0,0,0,0,0,0,0,0,0,0,0,0,0,0,0,0,0,0,0,0,0,0,0,0,0,0,0,0,0,0,0,0,0,0,0,0,0,0,0,0,0,0,0,0,0,0,0,0,0,0,0,0,0,0,0,0,0,0,0,0,0,0,0,0,0,0,0,0,0,0,0,0,0,0,0,0,0,0,0,0,0,0,0,0],"sum_hessian":[9.674E3,5.599E3,4.075E3,3.589E3,2.01E3,2.842E3,1.233E3,9.94E2,2.595E3,1.024E3,9.86E2,1.321E3,1.521E3,2.17E2,1.016E3,5.5E2,4.44E2,2.228E3,3.67E2,8.33E2,1.91E2,8.04E2,1.82E2,2.68E2,1.053E3,1.08E3,4.41E2,2.03E2,1.4E1,5.78E2,4.38E2,8.9E1,4.61E2,4.12E2,3.2E1,4.11E2,1.817E3,3.47E2,2E1,2.8E1,8.05E2,1.69E2,2.2E1,4.63E2,3.41E2,2.7E1,1.55E2,2.3E1,2.45E2,9.96E2,5.7E1,1.054E3,2.6E1,3.84E2,5.7E1,1.84E2,1.9E1,5.3E2,4.8E1,1.9E2,2.48E2,3.2E1,5.7E1,3.9E1,4.22E2,2.47E2,1.65E2,1.3E1,1.9E1,2.08E2,2.03E2,2.13E2,1.604E3,1.54E2,1.93E2,1.6E1,1.2E1,1.86E2,6.19E2,2E1,1.49E2,1.1E1,1.1E1,1.48E2,3.15E2,2.78E2,6.3E1,1.1E1,1.6E1,1.7E1,1.38E2,1.1E1,1.2E1,1.49E2,9.6E1,1.54E2,8.42E2,3.2E1,2.5E1,6.16E2,4.38E2,1.5E1,1.1E1,3.18E2,6.6E1,2.9E1,2.8E1,6.2E1,1.22E2,5.02E2,2.8E1,2.5E1,2.3E1,1.52E2,3.8E1,2.06E2,4.2E1],"tree_param":{"num_deleted":"0","num_feature":"13","num_nodes":"117","size_leaf_vector":"1"}},{"base_weights":[-5.4601795E-4,-1.763134E-1,2.7898958E-1,-2.578395E-1,-3.6295056E-2,1.2047598E-1,4.581633E-1,-3.615669E-1,-1.6998391E-1,-1.262405E-1,7.78882E-2,1.7501995E-2,1.7932147E-1,3.7557212E-1,6.192078E-1,-3.876968E-1,-1.7737918E-1,-1.9992335E-1,-3.6300623E-3,-1.6849111E-1,5.4967147E-3,5.8411818E-2,2.8753534E-1,-4.13202E-3,4.408963E-1,1.4880069E-1,3.4186825E-1,2.723696E-1,4.370552E-1,5.45291E-1,7.505121E-1,-4.067889E-1,-1.7972367E-1,-2.7659768E-2,-2.6235062E-1,-2.7410725E-1,-1.4795178E-1,-2.400842E-2,1.615028E-2,-2.0421055E-1,-4.1689105E-2,-4.34284E-2,1.4560571E-1,4.4348873E-2,4.136611E-1,1.6596264E-1,5.2369297E-1,-2.5734467E-2,3.8034874E-1,2.7773032E-1,4.1735265E-2,1.3091521E-1,3.6280543E-1,5.318179E-1,3.0669603E-1,2.5656673E-1,3.4713767E-2,3.3766195E-1,5.114386E-1,4.897543E-1,6.8844116E-1,8.821396E-1,6.954405E-1,-2.7123772E-2,-2.022379E-2,-1.3514126E-2,-8.493639E-4,-8.564896E-3,1.7743562E-3,-9.685059E-3,-1.9127022E-2,-1.3481352E-2,-2.0128397E-2,-1.6543942E-2,-6.939854E-3,-3.0484502E-3,9.553201E-3,-1.3811696E-2,-7.334446E-3,-4.7171337E-4,-1.3570489E-2,-3.0078787E-2,-6.728901E-4,4.21477E-3,1.9225806E-2,-1.2225469E-2,3.083265E-3,1.7010506E-2,2.864564E-2,2.4494456E-2,4.255654E-3,2.080506E-2,3.2580193E-2,-1.1384396E-2,5.611999E-4,1.3803656E-2,3.1437222E-2,7.762107E-3,2.265025E-2,6.405372E-3,2.4563571E-2,1.5089801E-2,2.9615363E-2,2.0648373E-2,3.6899667E-2,1.4648973E-2,3.134317E-2,9.271658E-4,1.476141E-2,3.221449E-2,1.6743343E-2,3.0650984E-2,1.8277802E-2,2.1097494E-2,3.0613162E-2,3.0761277E-2,3.9764263E-2,5.269728E-2,4.3144997E-2,3.440577E-2,4.382537E-2],"categories":[],"categories_nodes":[],"categories_segments":[],"categories_sizes":[],"default_left":[0,0,0,0,0,0,0,0,0,0,0,0,0,0,0,0,0,0,0,0,0,0,0,0,0,0,0,0,0,0,0,0,0,0,0,0,0,0,0,0,0,0,0,0,0,0,0,0,0,0,0,0,0,0,0,0,0,0,0,0,0,0,0,0,0,0,0,0,0,0,0,0,0,0,0,0,0,0,0,0,0,0,0,0,0,0,0,0,0,0,0,0,0,0,0,0,0,0,0,0,0,0,0,0,0,0,0,0,0,0,0,0,0,0,0,0,0,0,0,0,0],"id":12,"left_children":[1,3,5,7,9,11,13,15,17,19,21,23,25,27,29,31,33,35,37,39,41,43,45,47,49,51,53,55,57,59,61,63,65,67,69,71,73,75,-1,77,79,81,83,85,87,89,91,93,95,97,-1,99,101,103,105,107,-1,109,111,113,115,117,119,-1,-1,-1,-1,-1,-1,-1,-1,-1,-1,-1,-1,-1,-1,-1,-1,-1,-1,-1,-1,-1,-1,-1,-1,-1,-1,-1,-1,-1,-1,-1,-1,-1,-1,-1,-1,-1,-1,-1,-1,-1,-1,-1,-1,-1,-1,-1,-1,-1,-1,-1,-1,-1,-1,-1,-1,-1,-1],"loss_changes":[4.743942E2,6.764125E1,1.0579053E2,3.4074295E1,2.241899E1,1.1967564E1,2.3117157E1,8.19458E0,1.0086945E1,6.8132114E0,3.887764E0,6.639482E0,6.183296E0,7.2473297E0,5.5292053E0,5.8956146E0,2.695881E0,6.578537E0,1.8949093E0,4.165064E0,2.0418854E0,4.349279E0,2.2458835E0,5.6595254E0,1.7717891E0,3.9997501E0,1.206255E0,2.4257584E0,5.233032E0,2.8320312E0,1.2456131E0,4.0252075E0,1.4614649E0,6.367669E-1,9.7796535E-1,1.5885811E0,3.0186195E0,1.9050783E0,0E0,2.521305E0,1.3893833E0,3.4378388E0,1.0514424E0,2.9607978E0,2.6432657E-1,1.3028051E0,1.5556717E-1,4.38082E0,7.9915285E-1,3.9461052E-1,0E0,3.730074E0,1.1399946E0,5.2539253E-1,1.4833317E0,1.7308502E0,0E0,2.0296745E0,3.9866486E0,1.982254E0,3.9588165E-1,1.2626648E-1,7.507553E-1,0E0,0E0,0E0,0E0,0E0,0E0,0E0,0E0,0E0,0E0,0E0,0E0,0E0,0E0,0E0,0E0,0E0,0E0,0E0,0E0,0E0,0E0,0E0,0E0,0E0,0E0,0E0,0E0,0E0,0E0,0E0,0E0,0E0,0E0,0E0,0E0,0E0,0E0,0E0,0E0,0E0,0E0,0E0,0E0,0E0,0E0,0E0,0E0,0E0,0E0,0E0,0E0,0E0,0E0,0E0,0E0,0E0,0E0],"parents":[2147483647,0,0,1,1,2,2,3,3,4,4,5,5,6,6,7,7,8,8,9,9,10,10,11,11,12,12,13,13,14,14,15,15,16,16,17,17,18,18,19,19,20,20,21,21,22,22,23,23,24,24,25,25,26,26,27,27,28,28,29,29,30,30,31,31,32,32,33,33,34,34,35,35,36,36,37,37,39,39,40,40,41,41,42,42,43,43,44,44,45,45,46,46,47,47,48,48,49,49,51,51,52,52,53,53,54,54,55,55,57,57,58,58,59,59,60,60,61,61,62,62],"right_children":[2,4,6,8,10,12,14,16,18,20,22,24,26,28,30,32,34,36,38,40,42,44,46,48,50,52,54,56,58,60,62,64,66,68,70,72,74,76,-1,78,80,82,84,86,88,90,92,94,96,98,-1,100,102,104,106,108,-1,110,112,114,116,118,120,-1,-1,-1,-1,-1,-1,-1,-1,-1,-1,-1,-1,-1,-1,-1,-1,-1,-1,-1,-1,-1,-1,-1,-1,-1,-1,-1,-1,-1,-1,-1,-1,-1,-1,-1,-1,-1,-1,-1,-1,-1,-1,-1,-1,-1,-1,-1,-1,-1,-1,-1,-1,-1,-1,-1,-1,-1,-1],"split_conditions":[8.50884E1,1.6320093E1,1.6723068E1,7.897965E1,8.015402E1,1.6319662E1,3.09E2,3E0,1.6383078E1,1.6580706E1,1.6796438E1,9.2718544E1,1.6661013E1,8.897386E1,1.7363455E1,1.6451916E1,1.16E2,1.5941555E1,1.7068558E1,1.6524475E1,1.6361631E1,1.7130419E1,1.6724195E1,1.6715971E1,9.506479E1,5E0,1.6686361E1,1.6954157E1,1.6904953E1,1.6633528E1,2.813E3,7.1186584E1,1.08E2,7.5869064E1,7.41E2,7.777778E-1,1.61502E1,1.72E2,1.615028E-2,7.6837234E1,1.6990818E1,6.13E2,2.5125E1,1.6016815E1,2.6083334E1,1.6990818E1,8.175725E1,1.6182137E1,1.7068558E1,1.6169699E1,4.1735265E-2,4.611111E1,1.62E3,2.5166666E1,1.719624E1,1.6081074E1,3.4713767E-2,1E2,2.813E3,9.765957E1,1.3E1,7.5E-1,5.2E2,-2.7123772E-2,-2.022379E-2,-1.3514126E-2,-8.493639E-4,-8.564896E-3,1.7743562E-3,-9.685059E-3,-1.9127022E-2,-1.3481352E-2,-2.0128397E-2,-1.6543942E-2,-6.939854E-3,-3.0484502E-3,9.553201E-3,-1.3811696E-2,-7.334446E-3,-4.7171337E-4,-1.3570489E-2,-3.0078787E-2,-6.728901E-4,4.21477E-3,1.9225806E-2,-1.2225469E-2,3.083265E-3,1.7010506E-2,2.864564E-2,2.4494456E-2,4.255654E-3,2.080506E-2,3.2580193E-2,-1.1384396E-2,5.611999E-4,1.3803656E-2,3.1437222E-2,7.762107E-3,2.265025E-2,6.405372E-3,2.4563571E-2,1.5089801E-2,2.9615363E-2,2.0648373E-2,3.6899667E-2,1.4648973E-2,3.134317E-2,9.271658E-4,1.476141E-2,3.221449E-2,1.6743343E-2,3.0650984E-2,1.8277802E-2,2.1097494E-2,3.0613162E-2,3.0761277E-2,3.9764263E-2,5.269728E-2,4.3144997E-2,3.440577E-2,4.382537E-2],"split_indices":[11,7,7,11,11,7,0,3,8,8,6,11,6,11,7,8,0,7,8,7,7,8,7,8,11,3,6,8,7,8,9,11,0,11,9,4,8,0,0,11,6,9,5,8,5,6,11,8,8,7,0,5,9,5,8,8,0,9,9,11,10,4,0,0,0,0,0,0,0,0,0,0,0,0,0,0,0,0,0,0,0,0,0,0,0,0,0,0,0,0,0,0,0,0,0,0,0,0,0,0,0,0,0,0,0,0,0,0,0,0,0,0,0,0,0,0,0,0,0,0,0],"split_type":[0,0,0,0,0,0,0,0,0,0,0,0,0,0,0,0,0,0,0,0,0,0,0,0,0,0,0,0,0,0,0,0,0,0,0,0,0,0,0,0,0,0,0,0,0,0,0,0,0,0,0,0,0,0,0,0,0,0,0,0,0,0,0,0,0,0,0,0,0,0,0,0,0,0,0,0,0,0,0,0,0,0,0,0,0,0,0,0,0,0,0,0,0,0,0,0,0,0,0,0,0,0,0,0,0,0,0,0,0,0,0,0,0,0,0,0,0,0,0,0,0],"sum_hessian":[9.655E3,5.928E3,3.727E3,3.746E3,2.182E3,1.978E3,1.749E3,1.717E3,2.029E3,1.221E3,9.61E2,7.2E2,1.258E3,1.157E3,5.92E2,1.503E3,2.14E2,1.719E3,3.1E2,9.25E2,2.96E2,8.8E2,8.1E1,6.85E2,3.5E1,1.06E3,1.98E2,4.33E2,7.24E2,3.8E2,2.12E2,1.376E3,1.27E2,7.8E1,1.36E2,7.07E2,1.012E3,2.91E2,1.9E1,7.21E2,2.04E2,2.19E2,7.7E1,8.47E2,3.3E1,5.4E1,2.7E1,6.49E2,3.6E1,2.4E1,1.1E1,9.79E2,8.1E1,3E1,1.68E2,4.16E2,1.7E1,3.11E2,4.13E2,2.75E2,1.05E2,6.1E1,1.51E2,3.32E2,1.044E3,8.8E1,3.9E1,2.5E1,5.3E1,7.3E1,6.3E1,5.73E2,1.34E2,1.07E2,9.05E2,2.51E2,4E1,4.06E2,3.15E2,1.77E2,2.7E1,1.2E1,2.07E2,5.9E1,1.8E1,3.8E1,8.09E2,1.9E1,1.4E1,1.2E1,4.2E1,1.1E1,1.6E1,1.06E2,5.43E2,2.3E1,1.3E1,1.3E1,1.1E1,9.45E2,3.4E1,5.7E1,2.4E1,1.6E1,1.4E1,1.5E2,1.8E1,2.9E1,3.87E2,2.8E1,2.83E2,3.08E2,1.05E2,1.24E2,1.51E2,3.3E1,7.2E1,2.6E1,3.5E1,1.04E2,4.7E1],"tree_param":{"num_deleted":"0","num_feature":"13","num_nodes":"121","size_leaf_vector":"1"}},{"base_weights":[2.1063622E-4,-1.2549661E-1,3.365845E-1,-2.338115E-1,1.5505303E-2,2.3598196E-1,5.17765E-1,-3.3850798E-1,-1.5816721E-1,-1.5594919E-1,6.1672732E-2,1.336461E-1,2.9323235E-1,3.1491882E-1,5.8339345E-1,-4.3390673E-1,-2.7366596E-1,-2.0135173E-1,-2.3710601E-2,-1.84137E-1,4.473975E-2,6.1552785E-3,1.5543897E-1,8.209119E-2,2.7023846E-1,2.7357328E-1,5.611263E-1,4.2506078E-1,1.8556389E-1,5.3885674E-1,7.0454997E-1,-3.5920326E-2,-4.1633463E-1,-4.120462E-1,-2.2439086E-1,-4.804727E-1,-1.8331367E-1,-1.7361648E-1,1.8332113E-2,-2.0428611E-1,4.1440774E-2,-6.774894E-2,1.6829875E-1,-2.2510684E-1,2.699375E-2,1.03948995E-1,2.7458385E-1,1.0948377E-1,-1.2918097E-1,8.340248E-4,2.9316238E-1,2.6055655E-1,3.224716E-2,4.776422E-1,6.797441E-1,3.9517414E-2,3.731027E-1,2.781559E-1,-1.2948671E-4,4.9803564E-1,7.271606E-1,6.8134946E-1,4.8191436E-2,-2.7879244E-2,-2.0520559E-2,-2.7037831E-2,-1.8903729E-2,-2.0652806E-2,-1.1241195E-2,-3.1352066E-2,-2.1715991E-2,-1.6310653E-2,-8.269716E-3,-1.1108749E-2,6.673763E-4,-3.360264E-4,1.6713763E-2,-1.4725429E-2,-8.583009E-3,5.993617E-3,-2.8555247E-3,-9.041488E-3,-2.8527813E-4,1.4320715E-2,-1.9730227E-3,-1.8192234E-2,-7.465305E-3,7.3291536E-4,1.8044204E-2,3.444338E-3,1.6127203E-2,1.3491542E-2,3.0169748E-2,1.5131344E-2,2.7656744E-3,-1.4623022E-2,5.7445065E-4,2.531593E-2,1.371274E-2,1.6979726E-2,1.177372E-2,3.3756524E-2,1.9138303E-2,2.8764123E-2,4.0663872E-2,2.2512175E-2,1.1875437E-2,8.521569E-3,1.809961E-2,-9.733151E-3,5.549016E-3,2.9606943E-3,2.7425919E-2,3.3688545E-2,4.394793E-2,2.3856066E-2,3.7853323E-2],"categories":[],"categories_nodes":[],"categories_segments":[],"categories_sizes":[],"default_left":[0,0,0,0,0,0,0,0,0,0,0,0,0,0,0,0,0,0,0,0,0,0,0,0,0,0,0,0,0,0,0,0,0,0,0,0,0,0,0,0,0,0,0,0,0,0,0,0,0,0,0,0,0,0,0,0,0,0,0,0,0,0,0,0,0,0,0,0,0,0,0,0,0,0,0,0,0,0,0,0,0,0,0,0,0,0,0,0,0,0,0,0,0,0,0,0,0,0,0,0,0,0,0,0,0,0,0,0,0,0,0,0,0,0,0,0,0],"id":13,"left_children":[1,3,5,7,9,11,13,15,17,19,21,23,25,27,29,31,33,35,37,39,41,43,45,47,49,51,53,55,57,59,61,-1,63,65,67,69,71,73,75,77,79,81,83,85,87,89,91,93,95,-1,97,99,-1,101,103,-1,105,107,109,111,113,115,-1,-1,-1,-1,-1,-1,-1,-1,-1,-1,-1,-1,-1,-1,-1,-1,-1,-1,-1,-1,-1,-1,-1,-1,-1,-1,-1,-1,-1,-1,-1,-1,-1,-1,-1,-1,-1,-1,-1,-1,-1,-1,-1,-1,-1,-1,-1,-1,-1,-1,-1,-1,-1,-1,-1],"loss_changes":[4.0694482E2,1.07009926E2,4.7622498E1,3.1319595E1,2.4082193E1,9.817482E0,1.2308319E1,1.0180801E1,1.3339241E1,3.6653423E0,1.2468637E1,4.2230816E0,5.568283E0,3.1891155E0,3.5984802E0,2.5849762E0,6.669655E0,8.682701E0,3.5464728E0,2.591219E0,1.1135061E0,7.2459364E0,5.424553E0,2.549106E0,9.34206E-1,4.14489E0,5.392246E-1,1.8095455E0,1.8532097E0,3.7747192E0,5.41008E-1,0E0,2.0983887E0,1.301281E0,1.7364922E0,6.778946E-1,5.758747E0,7.701335E-1,3.1689956E0,1.5641937E0,3.1233394E-1,2.4119969E-1,7.901702E-1,1.1550937E0,5.6690617E0,4.8334994E0,1.7257843E0,3.8560705E0,1.0266471E0,0E0,9.3180656E-1,2.1557007E0,0E0,6.614809E-1,1.0478878E-1,0E0,6.482849E-1,4.3615007E-1,6.688175E-1,2.1061325E0,5.6900406E-1,6.9986725E-1,0E0,0E0,0E0,0E0,0E0,0E0,0E0,0E0,0E0,0E0,0E0,0E0,0E0,0E0,0E0,0E0,0E0,0E0,0E0,0E0,0E0,0E0,0E0,0E0,0E0,0E0,0E0,0E0,0E0,0E0,0E0,0E0,0E0,0E0,0E0,0E0,0E0,0E0,0E0,0E0,0E0,0E0,0E0,0E0,0E0,0E0,0E0,0E0,0E0,0E0,0E0,0E0,0E0,0E0,0E0],"parents":[2147483647,0,0,1,1,2,2,3,3,4,4,5,5,6,6,7,7,8,8,9,9,10,10,11,11,12,12,13,13,14,14,15,15,16,16,17,17,18,18,19,19,20,20,21,21,22,22,23,23,24,24,25,25,26,26,27,27,28,28,29,29,30,30,32,32,33,33,34,34,35,35,36,36,37,37,38,38,39,39,40,40,41,41,42,42,43,43,44,44,45,45,46,46,47,47,48,48,50,50,51,51,53,53,54,54,56,56,57,57,58,58,59,59,60,60,61,61],"right_children":[2,4,6,8,10,12,14,16,18,20,22,24,26,28,30,32,34,36,38,40,42,44,46,48,50,52,54,56,58,60,62,-1,64,66,68,70,72,74,76,78,80,82,84,86,88,90,92,94,96,-1,98,100,-1,102,104,-1,106,108,110,112,114,116,-1,-1,-1,-1,-1,-1,-1,-1,-1,-1,-1,-1,-1,-1,-1,-1,-1,-1,-1,-1,-1,-1,-1,-1,-1,-1,-1,-1,-1,-1,-1,-1,-1,-1,-1,-1,-1,-1,-1,-1,-1,-1,-1,-1,-1,-1,-1,-1,-1,-1,-1,-1,-1,-1,-1],"split_conditions":[1.6544008E1,8.175725E1,1.7038155E1,1.6154968E1,1.61382E1,8.643945E1,9.017656E1,7.604707E1,1.6515175E1,8.811979E1,8.711062E1,1.6383078E1,9.765957E1,1.7231573E1,6E0,1.6079885E1,1.6021807E1,1.6016815E1,7.469715E1,1.6383078E1,1.6094017E1,1.61502E1,1.6539383E1,1.6990818E1,7.6E1,1.719624E1,6E0,4.16E2,7.777778E-1,1.680538E1,6.62E2,-3.5920326E-2,6.925966E1,1.41E2,1.15E2,5.4545456E-1,7.289826E1,1.6388268E1,1.7130419E1,8.323506E1,1.6646585E1,2.67E2,1.5989766E1,1.5992507E1,1.6840672E1,9.291286E1,5E0,4.16E2,1.16E2,8.340248E-4,2E0,1.6541435E1,3.224716E-2,1.91E2,7.1428573E-1,3.9517414E-2,2.6333334E1,1.634358E1,1.5958301E1,1.5958301E1,1.7305227E1,5.714286E-1,4.8191436E-2,-2.7879244E-2,-2.0520559E-2,-2.7037831E-2,-1.8903729E-2,-2.0652806E-2,-1.1241195E-2,-3.1352066E-2,-2.1715991E-2,-1.6310653E-2,-8.269716E-3,-1.1108749E-2,6.673763E-4,-3.360264E-4,1.6713763E-2,-1.4725429E-2,-8.583009E-3,5.993617E-3,-2.8555247E-3,-9.041488E-3,-2.8527813E-4,1.4320715E-2,-1.9730227E-3,-1.8192234E-2,-7.465305E-3,7.3291536E-4,1.8044204E-2,3.444338E-3,1.6127203E-2,1.3491542E-2,3.0169748E-2,1.5131344E-2,2.7656744E-3,-1.4623022E-2,5.7445065E-4,2.531593E-2,1.371274E-2,1.6979726E-2,1.177372E-2,3.3756524E-2,1.9138303E-2,2.8764123E-2,4.0663872E-2,2.2512175E-2,1.1875437E-2,8.521569E-3,1.809961E-2,-9.733151E-3,5.549016E-3,2.9606943E-3,2.7425919E-2,3.3688545E-2,4.394793E-2,2.3856066E-2,3.7853323E-2],"split_indices":[7,11,7,7,7,11,11,11,8,11,11,8,11,7,3,8,6,8,11,8,6,8,6,6,0,8,3,9,4,8,0,0,11,0,0,4,11,7,8,11,8,0,7,8,8,11,3,9,0,0,10,6,0,9,4,0,5,8,8,8,7,4,0,0,0,0,0,0,0,0,0,0,0,0,0,0,0,0,0,0,0,0,0,0,0,0,0,0,0,0,0,0,0,0,0,0,0,0,0,0,0,0,0,0,0,0,0,0,0,0,0,0,0,0,0,0,0],"split_type":[0,0,0,0,0,0,0,0,0,0,0,0,0,0,0,0,0,0,0,0,0,0,0,0,0,0,0,0,0,0,0,0,0,0,0,0,0,0,0,0,0,0,0,0,0,0,0,0,0,0,0,0,0,0,0,0,0,0,0,0,0,0,0,0,0,0,0,0,0,0,0,0,0,0,0,0,0,0,0,0,0,0,0,0,0,0,0,0,0,0,0,0,0,0,0,0,0,0,0,0,0,0,0,0,0,0,0,0,0,0,0,0,0,0,0,0,0],"sum_hessian":[9.623E3,7.005E3,2.618E3,3.962E3,3.043E3,1.684E3,9.34E2,